Language model created by QuickLM on Sun Apr 11 14:01:11 EDT 2021
Copyright (c) 1996-2010 Carnegie Mellon University and Alexander I. Rudnicky

The model is in standard ARPA format, designed by Doug Paul while he was at MITRE.

The code that was used to produce this language model is available in Open Source.
Please visit http://www.speech.cs.cmu.edu/tools/ for more information

The (fixed) discount mass is 0.5. The backoffs are computed using the ratio method.
This model based on a corpus of 699 sentences and 2517 words

\data\
ngram 1=2517
ngram 2=7695
ngram 3=9052

\1-grams:
-4.0393 10 -0.3008
-4.3404 100 -0.3010
-4.3404 1000 -0.3009
-4.3404 10GAUGE -0.3010
-4.0393 11 -0.2999
-4.3404 13 -0.2954
-4.3404 14TH -0.3010
-4.3404 150 -0.3008
-4.0393 16 -0.2954
-4.3404 17 -0.2967
-4.3404 18 -0.3010
-4.3404 1800 -0.2992
-4.3404 181224 -0.2869
-4.3404 1818 -0.3004
-4.3404 18211871 -0.3009
-4.3404 1829 -0.3003
-4.3404 1836 -0.2995
-4.3404 1843 -0.2977
-4.3404 1844 -0.3009
-4.0393 1845 -0.2824
-4.3404 1854 -0.3005
-4.3404 1856 -0.3010
-4.0393 1857 -0.2964
-4.3404 1858 -0.3008
-4.3404 1863 -0.2903
-4.3404 18TH -0.3010
-4.0393 1917 -0.2869
-4.3404 1961 -0.2869
-4.0393 1989 -0.2869
-4.3404 19TH -0.3010
-4.0393 1ST -0.3009
-3.6414 2 -0.2971
-4.3404 20 -0.3008
-4.3404 200 -0.2869
-4.3404 200000 -0.3007
-4.0393 2004 -0.2869
-4.3404 2010 -0.2869
-4.3404 2013 -0.2869
-4.3404 2015 -0.2869
-4.3404 2017 -0.3010
-3.8632 2018 -0.2863
-4.3404 2023 -0.2869
-4.3404 23 -0.3010
-4.3404 24INCH -0.3010
-3.8632 25 -0.3000
-4.3404 27 -0.3001
-4.3404 28 -0.3010
-3.5622 3 -0.2866
-4.0393 30 -0.3007
-4.0393 300 -0.3007
-4.3404 33 -0.3008
-4.3404 34 -0.3010
-4.0393 4 -0.3005
-4.3404 400POUND -0.3010
-4.3404 43 -0.3010
-3.6414 5 -0.3004
-4.3404 50 -0.2954
-4.3404 54 -0.2869
-3.8632 54TH -0.2869
-4.3404 6 -0.2960
-4.3404 7090 -0.2954
-4.3404 75 -0.2954
-4.0393 80K -0.2851
-4.3404 9 -0.3005
-4.3404 90 -0.2954
-4.3404 90S -0.2967
-4.3404 95 -0.3010
-1.4959 </s> -0.3010
-1.4959 <s> -0.2030
-1.9355 A -0.2667
-4.3404 ABHORRENT -0.2869
-4.0393 ABILITY -0.2965
-3.3404 ABLE -0.2965
-4.0393 ABOLISH -0.3005
-4.0393 ABOLISHED -0.3005
-4.3404 ABOLITION -0.2954
-4.3404 ABOLITIONIST -0.3010
-4.3404 ABOLITIONISTS -0.2977
-2.8490 ABOUT -0.2626
-4.0393 ABOVE -0.2869
-4.0393 ABSOLUTE -0.3009
-4.3404 ABSOLUTELY -0.3010
-4.3404 ABUSE -0.3005
-4.3404 ACCENT -0.2869
-4.3404 ACCEPT -0.3000
-4.0393 ACCEPTED -0.2993
-4.3404 ACCESS -0.2965
-4.3404 ACCOMMODATE -0.3006
-4.3404 ACCOUNT -0.3010
-4.3404 ACCOUNTING -0.2967
-4.3404 ACCURATE -0.2965
-4.3404 ACHIEVE -0.3003
-4.3404 ACHIEVEMENTS -0.3010
-4.3404 ACHIEVING -0.3009
-4.3404 ACID -0.3010
-3.8632 ACT -0.2956
-4.3404 ACTION -0.2998
-4.3404 ACTIONS -0.3010
-3.4953 ACTUALLY -0.2953
-4.3404 ADD -0.2960
-4.3404 ADDERALL -0.2869
-4.3404 ADJUST -0.2995
-4.0393 ADMIRABLE -0.2963
-4.0393 ADOPTED -0.3007
-4.3404 ADORED -0.3007
-4.0393 ADVANTAGE -0.2948
-4.0393 AF -0.2966
-4.3404 AFFECTING -0.3009
-4.3404 AFFIDAVIT -0.2987
-4.0393 AFRICAN -0.2979
-4.3404 AFRO -0.3010
-4.3404 AFROMEXICAN -0.2869
-3.2264 AFTER -0.2833
-4.3404 AFTERWARDS -0.3005
-4.3404 AGAIN -0.2967
-4.0393 AGAINST -0.2851
-4.0393 AGE -0.2856
-4.0393 AGENCIES -0.2994
-4.3404 AGENCY -0.2869
-4.0393 AGENT -0.2858
-4.3404 AGITATING -0.3010
-4.3404 AGO -0.2967
-4.0393 AGREE -0.2946
-4.3404 AIMING -0.2992
-4.3404 AINT -0.3010
-4.0393 ALABAMA -0.3008
-3.8632 ALAMO -0.2868
-3.8632 ALARM -0.2980
-4.3404 ALERTED -0.3003
-4.3404 ALEXANDER -0.3010
-4.3404 ALIEN -0.3007
-4.3404 ALIENS -0.3010
-4.3404 ALII -0.3010
-4.3404 ALIVE -0.2967
-2.9979 ALL -0.2634
-4.0393 ALLBLACK -0.3009
-4.3404 ALLIED -0.3010
-4.3404 ALLOW -0.2994
-4.3404 ALLOWING -0.2903
-3.6414 ALMOST -0.2954
-3.6414 ALONE -0.2702
-3.8632 ALONG -0.2899
-4.3404 ALONGSIDE -0.2869
-3.5622 ALREADY -0.2991
-3.7383 ALS -0.3007
-3.2264 ALSO -0.2880
-4.3404 ALSRELATED -0.3010
-4.3404 ALTERNATE -0.3010
-4.0393 ALTERNATIVE -0.2965
-3.7383 ALTHOUGH -0.2977
-4.3404 ALUMINUM -0.3010
-3.5622 ALWAYS -0.2935
-4.3404 ALWYN -0.2869
-3.5622 AM -0.3000
-4.3404 AMAZING -0.3009
-3.6414 AMERICA -0.2968
-3.2990 AMERICAN -0.3005
-3.8632 AMERICANS -0.2858
-3.6414 AMONG -0.2991
-4.3404 AMOUNT -0.3003
-4.3404 AMSTERDAM -0.3001
-2.7841 AN -0.2995
-4.3404 ANCESTORS -0.2984
-4.0393 ANCIENT -0.3010
-1.9999 AND -0.2358
-4.3404 ANECDOTE -0.2954
-4.3404 ANECDOTES -0.3004
-4.3404 ANGRY -0.2987
-3.7383 ANOTHER -0.3004
-4.3404 ANSWERS -0.2965
-4.3404 ANTE -0.2869
-4.3404 ANTICIPATED -0.3000
-4.0393 ANTIQUATED -0.2966
-4.3404 ANTONIO -0.3010
-4.3404 ANXIOUS -0.3010
-3.3861 ANY -0.2947
-3.5622 ANYONE -0.2942
-3.6414 ANYTHING -0.2828
-4.3404 ANYTIME -0.2984
-4.3404 APOLOGISTS -0.2869
-4.3404 APOLOGIZE -0.2992
-4.3404 APPARENTLY -0.2960
-4.3404 APPEAL -0.2994
-4.3404 APPLE -0.2965
-4.3404 APPLICANT -0.3001
-3.8632 APPLICANTS -0.2863
-4.3404 APPLIED -0.3010
-4.3404 APPRECIATION -0.2954
-4.3404 APPREHENSION -0.2954
-4.3404 APPROACH -0.3006
-4.3404 APPS -0.3007
-4.3404 APR -0.3010
-4.3404 ARCANE -0.3010
-4.3404 ARCHAIC -0.3010
-2.9602 ARE -0.2627
-4.3404 AREA -0.3010
-4.3404 ARENT -0.3010
-4.3404 ARGUMENT -0.3010
-4.3404 ARMINIUS -0.3005
-4.3404 ARMINIUSS -0.3010
-3.6414 ARMY -0.2759
-3.6414 AROUND -0.2895
-3.7383 ARTICLE -0.2953
-4.3404 ARTICLES -0.3010
-2.5922 AS -0.2603
-4.3404 ASIA -0.2869
-3.8632 ASK -0.2950
-3.7383 ASKED -0.2991
-4.3404 ASKING -0.2992
-4.3404 ASL -0.3010
-4.3404 ASS -0.3010
-4.3404 ASSASINATION -0.2992
-4.0393 ASSAULT -0.2968
-4.3404 ASSES -0.3010
-4.3404 ASSHOLE -0.3005
-4.3404 ASSHOLES -0.2869
-4.3404 ASSISTED -0.3008
-4.3404 ASSULT -0.2998
-4.3404 ASSUME -0.2903
-4.3404 ASSUMING -0.2995
-4.3404 ASSUMPTION -0.2954
-2.6872 AT -0.2769
-4.3404 ATHENS -0.3010
-4.3404 ATLANTA -0.2869
-4.3404 ATMOSPHERE -0.2967
-4.3404 ATTACK -0.2977
-4.3404 ATTAINING -0.2994
-4.3404 ATTEMPTING -0.2965
-4.3404 ATTIC -0.2992
-4.3404 ATTITUDE -0.2987
-4.3404 AUDACITY -0.2954
-4.3404 AUDIENCE -0.3010
-4.3404 AUNT -0.3009
-4.0393 AUSTRIA -0.3008
-4.3404 AUTOMATICALLY -0.3008
-4.3404 AVENUES -0.2954
-4.3404 AVOIDED -0.2903
-4.3404 AWARDS -0.2869
-3.4953 AWAY -0.2781
-3.7383 AWESOME -0.3008
-4.3404 AWFUL -0.3003
-4.3404 AWKWARD -0.3010
-4.3404 B -0.2869
-4.3404 BABY -0.3005
-3.3861 BACK -0.2780
-4.3404 BACKGROUND -0.3010
-4.3404 BACKING -0.3009
-4.3404 BACKWARD -0.2967
-4.3404 BACKWARDS -0.2967
-3.6414 BAD -0.2867
-4.3404 BADGES -0.3009
-4.0393 BARBARIC -0.2992
-4.3404 BARBS -0.2997
-4.0393 BARELY -0.3009
-4.3404 BARR -0.3010
-4.3404 BASE -0.2869
-3.8632 BASED -0.2987
-4.0393 BASICALLY -0.3009
-4.3404 BASIS -0.2954
-4.0393 BASTARD -0.2869
-4.3404 BASTROP -0.3001
-4.3404 BAT -0.3003
-4.3404 BATH -0.3010
-4.0393 BATTALION -0.2862
-3.5622 BATTLE -0.2784
-4.3404 BBC -0.3010
-2.7276 BE -0.2786
-4.3404 BEAT -0.2903
-4.3404 BEAUTIFUL -0.2869
-3.7383 BECAME -0.2851
-3.1643 BECAUSE -0.2703
-3.7383 BECOME -0.2951
-4.3404 BECOMES -0.3009
-4.3404 BECOMING -0.3010
-3.0181 BEEN -0.2905
-3.2990 BEFORE -0.2850
-4.3404 BEGGED -0.3010
-4.3404 BEGINNING -0.2954
-3.8632 BEHIND -0.2869
-3.1099 BEING -0.2790
-4.3404 BEINGS -0.3010
-4.0393 BELIEVE -0.2854
-4.3404 BELIEVES -0.3003
-4.3404 BELLA -0.3010
-4.3404 BELONG -0.2965
-4.3404 BELONGED -0.2965
-4.3404 BEMOANED -0.3003
-4.3404 BERNARDIO -0.2977
-3.7383 BEST -0.2957
-4.3404 BESTOWED -0.3009
-4.3404 BET -0.3010
-3.8632 BETTER -0.2966
-4.0393 BETWEEN -0.3007
-4.3404 BEULLER -0.2980
-3.8632 BEYOND -0.2903
-4.3404 BID -0.3003
-4.0393 BIG -0.3010
-4.3404 BIGGEST -0.3010
-4.0393 BILLION -0.3010
-3.8632 BIT -0.3002
-3.1362 BLACK -0.2852
-4.3404 BLACKETT -0.3010
-4.3404 BLEW -0.2994
-4.3404 BLOCKERS -0.2869
-4.3404 BLOWN -0.3006
-3.8632 BODIES -0.2964
-3.7383 BODY -0.2955
-4.3404 BODYGUARD -0.2991
-4.3404 BOLIVIA -0.3006
-4.3404 BOLIVIAN -0.3010
-4.3404 BOLSTERED -0.2977
-4.3404 BOND -0.2997
-4.0393 BONDAGE -0.2984
-4.3404 BOOMERS -0.3009
-4.3404 BOOTED -0.3003
-3.8632 BORDER -0.2947
-4.3404 BORDERS -0.2967
-3.7383 BORN -0.2971
-4.3404 BOSS -0.3009
-4.3404 BOSTON -0.3010
-4.3404 BOTH -0.3010
-4.3404 BRAIN -0.3010
-3.8632 BRAVE -0.2967
-4.3404 BREACH -0.3010
-4.0393 BREAK -0.3007
-4.3404 BREECH -0.2903
-4.3404 BRENT -0.3010
-4.0393 BRIEF -0.3010
-4.3404 BRING -0.2987
-4.3404 BRINGS -0.2960
-4.3404 BRODERICK -0.2999
-4.3404 BRODERICKS -0.3010
-4.3404 BROKE -0.3009
-4.3404 BROTHERS -0.2869
-4.3404 BROUGHT -0.3009
-4.3404 BROWNIE -0.3006
-4.0393 BRUTAL -0.2999
-4.0393 BRUTALITY -0.2910
-4.3404 BUDS -0.3007
-4.3404 BUILD -0.2960
-4.0393 BUILT -0.2958
-4.3404 BULL -0.2869
-3.8632 BUNCH -0.2954
-4.3404 BUREAU -0.2869
-3.5622 BURIAL -0.2847
-3.6414 BURIED -0.2953
-4.3404 BURN -0.2869
-4.3404 BURNED -0.2967
-3.6414 BURY -0.2990
-4.3404 BURYING -0.3003
-4.3404 BUSINESS -0.3007
-4.3404 BUSTLE -0.3009
-2.6080 BUT -0.2565
-2.7606 BY -0.2781
-4.3404 C -0.2869
-4.3404 CA -0.3010
-4.3404 CABLE -0.3005
-4.3404 CALL -0.3008
-4.0393 CALLED -0.2944
-4.0393 CAMBRIDGE -0.2868
-3.6414 CAME -0.2917
-3.8632 CAMERA -0.3006
-4.3404 CAMERMAN -0.3010
-4.3404 CAMP -0.3010
-4.3404 CAMPBELL -0.3010
-3.0851 CAN -0.2968
-4.3404 CANADA -0.3000
-4.3404 CANADIAN -0.3006
-4.0393 CANDIDATES -0.2864
-4.0393 CANNOT -0.3005
-4.3404 CANON -0.3010
-3.3861 CANT -0.2981
-4.3404 CAPABILITIES -0.2999
-4.3404 CAPTAINS -0.2967
-4.3404 CAPTIVES -0.2992
-4.0393 CAPTURED -0.2959
-3.8632 CARE -0.2925
-4.3404 CAREERS -0.2977
-4.3404 CARES -0.3005
-4.3404 CARIBBEAN -0.3010
-4.0393 CARLINS -0.3010
-3.6414 CAROLINA -0.2865
-4.3404 CAROLINAS -0.3009
-4.3404 CARRIED -0.2960
-4.3404 CARVING -0.3005
-4.3404 CASES -0.2869
-4.3404 CATHOLICISM -0.2967
-4.3404 CATHOLICS -0.2869
-4.0393 CAUGHT -0.2990
-4.3404 CAUSE -0.2954
-4.3404 CAUSED -0.2903
-4.3404 CEASED -0.3010
-4.3404 CELLS -0.3010
-4.3404 CEMETERY -0.2997
-4.0393 CENTRAL -0.3008
-4.3404 CENTURY -0.3005
-4.3404 CEO -0.3009
-4.3404 CERTAINLY -0.2994
-4.3404 CESSION -0.3008
-4.3404 CHAD -0.2869
-4.3404 CHAIR -0.2965
-4.3404 CHALLENGE -0.3007
-4.0393 CHANCE -0.2909
-3.8632 CHANGE -0.2828
-4.3404 CHANGED -0.3003
-4.3404 CHANGES -0.2987
-4.3404 CHANNEL -0.3009
-4.3404 CHARACTER -0.2967
-4.3404 CHARACTERIZED -0.3008
-4.0393 CHARACTERS -0.2856
-4.0393 CHARGE -0.2999
-4.3404 CHAT -0.2869
-4.3404 CHEATED -0.2998
-4.0393 CHECK -0.2995
-4.3404 CHEEK -0.3010
-4.0393 CHEEKY -0.3010
-4.0393 CHILD -0.3010
-4.3404 CHILDHOOD -0.2869
-4.3404 CHILDREN -0.2869
-4.3404 CHINA -0.3005
-4.3404 CHINESE -0.2967
-4.3404 CHINGON -0.2869
-4.3404 CHINS -0.3009
-4.3404 CHOICE -0.2992
-4.3404 CHOOSE -0.3003
-4.0393 CHOSE -0.2857
-4.3404 CHOSEN -0.3010
-3.8632 CIA -0.2824
-4.3404 CIRCUMSTANCES -0.2967
-4.3404 CITIZEN -0.3005
-4.3404 CITY -0.3010
-3.4953 CIVIL -0.3007
-4.0393 CIVILIAN -0.3009
-4.3404 CIVILIZATION -0.2869
-4.3404 CK2 -0.2869
-4.3404 CLAIM -0.3010
-4.3404 CLAIMED -0.2965
-4.3404 CLAIMS -0.3005
-4.3404 CLARIFY -0.2987
-4.3404 CLARITY -0.2869
-4.3404 CLASS -0.3010
-4.3404 CLASSES -0.3010
-4.0393 CLASSIC -0.2869
-4.3404 CLASSIFIED -0.3010
-4.3404 CLASSY -0.3003
-4.3404 CLEAN -0.2869
-4.3404 CLEAR -0.3010
-3.7383 CLEARANCE -0.2983
-4.3404 CLEVER -0.2903
-4.3404 CLONES -0.2954
-3.8632 CLOSE -0.2959
-4.0393 CLUTCH -0.2869
-4.3404 COAST -0.3005
-4.0393 COCAINE -0.2824
-4.3404 CODES -0.3010
-4.3404 COFFEE -0.2992
-4.3404 COINS -0.2991
-4.0393 COKE -0.2869
-3.6414 COL -0.2869
-4.3404 COLD -0.2869
-3.8632 COLLEGE -0.2969
-4.0393 COLONEL -0.3010
-4.3404 COLONIAL -0.2869
-4.3404 COLOR -0.2869
-4.3404 COLORADO -0.3010
-4.3404 COLOUR -0.2869
-4.3404 COLUMBIA -0.2967
-4.3404 COLUMBUS -0.3010
-4.3404 COMBINES -0.3006
-4.0393 COMEDIAN -0.2869
-4.3404 COMEDIANS -0.2992
-4.0393 COMEDY -0.2835
-4.0393 COMES -0.2962
-4.3404 COMING -0.2965
-3.6414 COMMAND -0.2846
-4.3404 COMMANDER -0.2998
-4.0393 COMMANDING -0.3009
-4.0393 COMMENTS -0.2999
-4.3404 COMMITTED -0.2903
-3.6414 COMMON -0.3009
-3.5622 COMPANIES -0.2789
-4.0393 COMPANY -0.2869
-4.3404 COMPELLING -0.3010
-4.3404 COMPETITIVELY -0.2967
-4.3404 COMPLETE -0.3010
-4.3404 COMPLEXITY -0.2967
-4.3404 COMPREHENDED -0.2903
-4.3404 COMPRISE -0.2903
-4.3404 COMPUTER -0.3010
-4.3404 COMRADES -0.2869
-4.3404 CONDITION -0.2869
-4.3404 CONDUCT -0.3008
-4.0393 CONFEDERACY -0.2824
-3.4373 CONFEDERATE -0.2987
-3.5622 CONFEDERATES -0.2861
-4.3404 CONFERENCE -0.3003
-4.3404 CONFERENCES -0.3009
-4.3404 CONFIDENTLY -0.3008
-4.3404 CONFIRM -0.2984
-4.3404 CONGRATULATIONS -0.2998
-4.3404 CONJECTURE -0.2997
-4.3404 CONQUERED -0.3006
-4.3404 CONQUERORS -0.2967
-4.0393 CONSERVATIVE -0.3009
-4.3404 CONSIDER -0.3007
-3.7383 CONSIDERED -0.2969
-4.3404 CONSTANTLY -0.3010
-3.5622 CONSTITUTION -0.2941
-4.3404 CONSTITUTIONAL -0.3010
-4.0393 CONSTITUTIONS -0.2812
-4.3404 CONSULTING -0.3010
-4.3404 CONTACT -0.2997
-3.8632 CONTINUED -0.2962
-4.3404 CONTINUING -0.2965
-4.3404 CONTRACTING -0.3010
-4.3404 CONTRIBUTING -0.3010
-3.8632 CONTROL -0.2809
-4.3404 CONVENTIONS -0.3009
-4.3404 CONVERSATIONS -0.3001
-4.3404 CONVERT -0.2965
-3.6414 COOL -0.2845
-4.3404 COOLER -0.3005
-4.3404 COP -0.3010
-4.3404 COPIED -0.3003
-4.3404 COPYRIGHT -0.3010
-4.0393 CORNERSTONE -0.3010
-4.3404 COROICO -0.2869
-4.3404 CORPSE -0.3010
-4.3404 CORPSES -0.2967
-4.3404 CORRECTED -0.3006
-4.3404 CORRESPONDENT -0.3010
-4.3404 COUCH -0.2869
-3.1099 COULD -0.2967
-3.7383 COULDNT -0.3002
-4.0393 COUNT -0.2997
-4.3404 COUNTED -0.3010
-4.3404 COUNTLESS -0.3010
-3.8632 COUNTRIES -0.2866
-3.4953 COUNTRY -0.2831
-4.3404 COUNTS -0.2992
-3.8632 COUNTY -0.2969
-3.8632 COURSE -0.2975
-4.3404 COURTROOM -0.3010
-4.3404 COVER -0.3010
-4.3404 CRACK -0.3010
-4.3404 CRAFT -0.3010
-4.3404 CRASH -0.3010
-4.3404 CRAZY -0.2999
-4.3404 CREATE -0.2960
-4.3404 CREATORS -0.3010
-4.3404 CREED -0.2869
-4.3404 CREW -0.3008
-4.3404 CRICK -0.2977
-4.3404 CRIMINALIZATION -0.3006
-4.3404 CROCK -0.2954
-4.3404 CROSS -0.2903
-4.3404 CROSSING -0.2903
-4.3404 CRUELTIES -0.2954
-3.7383 CRUSADER -0.3010
-4.0393 CRUSH -0.2998
-4.0393 CRY -0.2903
-3.8632 CS -0.3001
-4.3404 CULTURE -0.3007
-4.3404 CUNNING -0.2954
-4.3404 CUNTS -0.2869
-4.3404 CURIOUS -0.3004
-4.3404 CUSTOMIZABLE -0.2995
-4.3404 CUT -0.3008
-4.3404 CUTTING -0.3009
-4.0393 CYBER -0.3009
-4.0393 CYBERSECURITY -0.3010
-4.3404 CYBORG -0.3009
-4.0393 D -0.2869
-3.7383 DAD -0.2806
-4.3404 DAMAGE -0.2965
-4.3404 DAMMIT -0.3010
-3.8632 DAMN -0.3004
-4.0393 DAN -0.3010
-4.3404 DANCING -0.2997
-4.3404 DANNY -0.3010
-4.3404 DARE -0.3009
-4.3404 DARED -0.3010
-4.3404 DARKSKINNED -0.3009
-4.3404 DASH -0.3000
-3.8632 DATA -0.2977
-3.8632 DAUGHTER -0.2968
-4.0393 DAUGHTERS -0.3006
-4.3404 DAVID -0.3010
-3.4953 DAY -0.2753
-4.3404 DAYS -0.3008
-4.3404 DEAD -0.2869
-4.3404 DEAF -0.3010
-4.3404 DEAFNESS -0.2987
-4.3404 DEAL -0.2997
-4.3404 DEALERS -0.2965
-4.3404 DEALING -0.2960
-4.3404 DEALT -0.2997
-3.4953 DEATH -0.2667
-4.3404 DECENT -0.3010
-3.8632 DECIDED -0.2942
-4.3404 DECLARED -0.2987
-4.0393 DECLARING -0.2868
-4.3404 DEEEEP -0.2869
-4.3404 DEEM -0.3003
-3.8632 DEEP -0.2974
-4.3404 DEFENDING -0.3009
-4.3404 DEFENSE -0.2954
-4.3404 DEFINITELY -0.3009
-4.3404 DEFINITION -0.2954
-4.0393 DEGREE -0.3010
-4.3404 DELIGHT -0.3010
-4.3404 DEMAND -0.3007
-4.3404 DEMANDS -0.2965
-4.3404 DEMOGRAPHIC -0.2869
-4.3404 DEMOGRAPHICS -0.3010
-4.3404 DEMONSTRABLY -0.3010
-4.3404 DENY -0.2903
-3.8632 DEPARTMENT -0.2996
-4.3404 DEPARTMENTS -0.2954
-4.0393 DEPICTED -0.2967
-3.7383 DESCENDANTS -0.2952
-4.3404 DESIRE -0.2965
-4.3404 DESTINATION -0.2992
-4.3404 DESTINY -0.2984
-4.3404 DETECTED -0.2967
-4.0393 DEVELOP -0.2983
-4.3404 DEVELOPER -0.3009
-4.3404 DEVELOPMENT -0.3005
-4.3404 DEVIL -0.2869
-3.8632 DEVOTED -0.3008
-4.3404 DIALOGUE -0.2992
-3.8632 DICK -0.2851
-3.0393 DID -0.2653
-3.2264 DIDNT -0.2982
-3.8632 DIE -0.2856
-3.8632 DIED -0.2869
-4.3404 DIFFERENT -0.3007
-4.3404 DIMAS -0.2997
-4.3404 DINNER -0.3010
-4.3404 DIPLOMATIC -0.3010
-4.3404 DIRECTSUICIDAL -0.3010
-4.3404 DISABILITIES -0.3006
-4.3404 DISABILITY -0.2992
-4.3404 DISADVANTAGE -0.2869
-4.3404 DISAGREE -0.2997
-4.0393 DISCOVERED -0.2973
-4.3404 DISCUSS -0.2903
-4.3404 DISPLAY -0.3001
-4.0393 DISQUALIFIED -0.2958
-4.3404 DISQUALIFY -0.2998
-4.3404 DISQUALIFYING -0.3010
-4.3404 DISREGARD -0.2992
-4.3404 DISTANCE -0.2965
-4.3404 DISTRICT -0.2954
-4.3404 DIVERSITY -0.2965
-4.3404 DIVIDE -0.3010
-4.3404 DIVIDING -0.3003
-4.3404 DIVULGE -0.2903
-3.1643 DO -0.2615
-4.3404 DOCUMENTARY -0.2998
-4.3404 DOCUMENTED -0.3009
-4.0393 DOCUMENTS -0.2967
-3.6414 DOES -0.2921
-3.7383 DOESNT -0.2996
-4.3404 DOING -0.3009
-3.7383 DOLLARS -0.2888
-4.3404 DOMICILE -0.2869
-3.6414 DONE -0.2970
-3.0616 DONT -0.2967
-4.3404 DOOR -0.3009
-4.3404 DOUBT -0.2987
-4.3404 DOUBTED -0.2869
-4.3404 DOUGLASS -0.2869
-3.8632 DOWN -0.2820
-4.3404 DOWNPLAY -0.2903
-4.3404 DRAGGING -0.3010
-4.3404 DRAMATIC -0.3010
-3.8632 DRESS -0.2963
-4.3404 DRESSES -0.2967
-4.3404 DRINK -0.2998
-4.0393 DRINKING -0.2869
-4.0393 DRIVE -0.2995
-4.3404 DROP -0.3008
-4.3404 DROWN -0.3005
-3.7383 DRUG -0.3009
-3.4373 DUDE -0.2916
-4.3404 DUNCAN -0.2869
-4.3404 DUNGEON -0.2869
-3.7383 DURING -0.2895
-4.3404 DUTYSHIFT -0.2869
-4.0393 EACH -0.3007
-4.3404 EAR -0.3010
-4.0393 EARLY -0.3009
-4.3404 EARNS -0.3005
-4.3404 EARTH -0.2869
-4.3404 EASIER -0.3009
-4.3404 EAST -0.2954
-4.0393 EASTERN -0.2966
-4.3404 EDGE -0.2999
-3.3861 EDIT -0.2867
-4.3404 EDITED -0.3003
-4.3404 EDITING -0.2965
-4.0393 EDUCATION -0.2851
-4.3404 EFFORT -0.3002
-4.3404 EIGHT -0.3008
-4.3404 EITHER -0.3009
-4.3404 ELECTED -0.3010
-4.3404 ELIGIBLE -0.2869
-4.0393 ELLEN -0.2915
-4.0393 EM -0.3009
-4.3404 EMBODIED -0.2977
-4.3404 EMPEROR -0.2869
-4.0393 EMPIRE -0.2823
-4.3404 EMPLOYEE -0.2984
-4.0393 EMPLOYEES -0.3007
-4.3404 ENCLAVE -0.3010
-4.3404 ENCOUNTERING -0.2869
-4.0393 ENCOURAGE -0.2998
-4.3404 ENCOURAGEMENT -0.2965
-3.8632 END -0.2812
-4.0393 ENDED -0.3007
-4.0393 ENEMY -0.2812
-4.3404 ENERGY -0.3010
-4.0393 ENFORCEMENT -0.2966
-4.3404 ENFORCING -0.3003
-3.5622 ENOUGH -0.2799
-4.3404 ENRON -0.2869
-3.5622 ENSLAVED -0.2948
-4.0393 ENSLAVEMENT -0.2947
-4.3404 ENSLAVER -0.2999
-4.0393 ENSURE -0.3003
-4.3404 ENTER -0.2903
-4.3404 ENTERED -0.2903
-4.3404 ENTERS -0.3007
-4.3404 ENTERTAINED -0.3003
-4.3404 ENTICEMENT -0.2992
-4.3404 ENTIRE -0.3007
-4.0393 ENTIRELY -0.2998
-4.3404 ENTIRETY -0.2869
-4.3404 ENTITLED -0.3009
-4.3404 EPSTEINS -0.3010
-3.8632 EQUAL -0.2931
-4.3404 EQUALITY -0.2954
-4.3404 EQUIVALENT -0.2954
-4.3404 ERROR -0.2869
-3.4953 ESCAPE -0.2844
-3.6414 ESCAPED -0.2865
-4.0393 ESCAPEES -0.2824
-3.6414 ESCAPING -0.2964
-4.3404 ESO -0.2997
-4.0393 ESPECIALLY -0.2973
-4.3404 ESSAYS -0.3010
-3.8632 ESSENTIALLY -0.3007
-4.3404 ESTABLISHED -0.2960
-4.0393 ETC -0.2862
-4.3404 ETHNICITY -0.2954
-4.3404 EUROPE -0.2965
-4.3404 EUROPEAN -0.3010
-4.3404 EVANESCENT -0.2967
-3.1942 EVEN -0.2747
-4.3404 EVENLY -0.3010
-4.3404 EVENTUALLY -0.3010
-3.4953 EVER -0.2850
-3.5622 EVERY -0.3003
-3.8632 EVERYONE -0.2804
-4.0393 EVERYTHING -0.2949
-4.3404 EVIDENCE -0.3010
-4.3404 EVIL -0.2995
-4.3404 EX -0.3006
-3.8632 EXACTLY -0.2899
-4.3404 EXCEPT -0.2977
-4.3404 EXCEPTIONAL -0.3010
-4.3404 EXCHANGED -0.3010
-4.3404 EXCITEDLY -0.3010
-4.3404 EXCLUDING -0.3008
-4.3404 EXCUSE -0.3010
-4.3404 EXIST -0.2869
-4.3404 EXISTENCE -0.2999
-4.3404 EXISTS -0.3009
-4.3404 EXPAND -0.3006
-4.3404 EXPANDED -0.3003
-4.3404 EXPANSION -0.2903
-4.3404 EXPENSE -0.2869
-4.3404 EXPERIENCE -0.2977
-4.3404 EXPERIENCED -0.3006
-4.3404 EXPLICITLY -0.3007
-4.3404 EXPLOIT -0.3010
-4.3404 EXTRA -0.3010
-4.3404 EXTREMELY -0.3010
-4.0393 EYE -0.2869
-4.3404 EYELIDS -0.2967
-4.0393 EYES -0.2869
-4.0393 FACE -0.2860
-3.3861 FACT -0.2817
-4.0393 FACTOR -0.2835
-4.3404 FACTORS -0.2980
-4.3404 FAILED -0.3008
-4.3404 FAILURES -0.2965
-4.3404 FAIRLY -0.3010
-4.3404 FALL -0.3003
-4.3404 FALLEN -0.3010
-4.3404 FAMED -0.3010
-3.8632 FAMILY -0.3001
-3.8632 FAMOUS -0.3001
-4.0393 FANTASTIC -0.2869
-4.0393 FAR -0.2902
-3.6414 FATHER -0.2922
-4.3404 FATHERINLAW -0.2869
-4.3404 FATHERS -0.3010
-4.3404 FAVOR -0.2954
-3.0393 FBI -0.2793
-4.3404 FEARED -0.2965
-4.3404 FEATURED -0.2998
-4.0393 FEBRUARY -0.3009
-3.7383 FEDERAL -0.3006
-4.3404 FEDERALLY -0.3009
-4.3404 FEDORA -0.2998
-4.3404 FEEL -0.3005
-4.0393 FEELS -0.3003
-4.0393 FEET -0.2812
-4.3404 FELIX -0.3010
-3.7383 FELL -0.2856
-4.3404 FELT -0.2987
-4.0393 FEMINIST -0.2869
-4.3404 FEMINISTS -0.3008
-4.3404 FERRIS -0.3010
-3.6414 FEW -0.3006
-4.3404 FIELD -0.2869
-4.3404 FIELDS -0.3010
-4.3404 FIFTYDOLLAR -0.3010
-3.8632 FIGHT -0.2949
-4.3404 FIGHTER -0.2869
-4.0393 FIGHTING -0.2947
-4.3404 FIGURE -0.3005
-4.0393 FIGURED -0.2975
-3.7383 FILM -0.2849
-4.3404 FINAL -0.3009
-4.3404 FINANCIAL -0.3010
-3.3404 FIND -0.2819
-4.3404 FINES -0.3007
-4.3404 FINISH -0.3009
-4.3404 FIRE -0.3010
-4.3404 FIREWALL -0.2869
-3.7383 FIRM -0.2784
-3.3861 FIRST -0.2970
-4.3404 FIT -0.3010
-4.3404 FLAG -0.3010
-4.3404 FLAGRANT -0.3010
-4.3404 FLASH -0.3008
-4.3404 FLED -0.3008
-4.0393 FLEE -0.2999
-4.0393 FLIGHT -0.2954
-4.0393 FLIGHTS -0.2947
-3.8632 FLORIDA -0.2994
-4.3404 FLYING -0.3010
-4.3404 FOCUS -0.2998
-3.8632 FOLKS -0.2997
-4.3404 FOLLOW -0.2869
-4.3404 FOLLOWERS -0.3010
-4.3404 FOLLOWING -0.3010
-4.0393 FOOT -0.2996
-4.3404 FOOTAGE -0.2954
-2.3861 FOR -0.2548
-4.3404 FORCED -0.2965
-4.3404 FORCES -0.3005
-4.3404 FORECAST -0.3001
-4.3404 FOREIGN -0.3006
-4.3404 FOREIGNERS -0.3008
-4.3404 FOREVER -0.3006
-4.0393 FORGET -0.2985
-4.3404 FORM -0.2954
-4.3404 FORMATION -0.2954
-4.3404 FORMED -0.2903
-3.5622 FORT -0.2848
-4.3404 FORTUNE -0.3010
-4.0393 FORWARD -0.2994
-4.3404 FORWARDS -0.2869
-3.8632 FOUGHT -0.2995
-4.0393 FOUND -0.2989
-4.3404 FOUNDATION -0.2967
-4.3404 FOUNDATIONS -0.3006
-4.0393 FOUNDED -0.3001
-4.3404 FOUNDERS -0.2954
-4.3404 FRAMED -0.2995
-4.3404 FREAKING -0.3010
-4.3404 FREDERICK -0.3010
-3.2264 FREE -0.2792
-4.3404 FREED -0.3003
-3.2612 FREEDOM -0.2586
-4.3404 FRESHMAN -0.3010
-4.3404 FRIDAY -0.3005
-4.0393 FRIEND -0.2975
-4.3404 FRIENDLY -0.2987
-4.0393 FRIENDS -0.2997
-4.3404 FROGET -0.2991
-2.8932 FROM -0.2796
-4.3404 FRONT -0.3010
-3.4953 FUCK -0.2708
-4.0393 FUCKED -0.2866
-3.3861 FUCKING -0.2862
-4.3404 FUCKS -0.3005
-4.3404 FUEL -0.2965
-4.3404 FUGITIVE -0.3008
-4.3404 FULL -0.3010
-4.0393 FULLY -0.3010
-3.6414 FUN -0.2810
-4.0393 FUNCTION -0.2957
-4.3404 FUNDAMENTALLY -0.3009
-3.8632 FUNNY -0.2823
-4.3404 FURTHER -0.3009
-4.3404 FUTURAMA -0.3010
-4.0393 GAME -0.2812
-4.0393 GAMER -0.2869
-4.3404 GAMES -0.2977
-4.3404 GARA -0.3010
-4.3404 GARNER -0.3010
-4.3404 GEAR -0.2977
-4.3404 GEGHIS -0.3008
-4.3404 GEHNIS -0.3008
-4.3404 GEN -0.3010
-3.4373 GENERAL -0.2940
-4.3404 GENERALS -0.3010
-4.3404 GENERATION -0.3006
-4.3404 GENEROUS -0.3009
-4.3404 GENETIC -0.3009
-3.3404 GENGHIS -0.2866
-4.3404 GENGHSTA -0.2869
-4.0393 GENIUS -0.2989
-4.0393 GENOCIDAL -0.3010
-3.8632 GEORGIA -0.2965
-4.3404 GERANT -0.3010
-4.3404 GERMANIC -0.3010
-4.3404 GERMANY -0.3009
-3.3861 GET -0.2941
-3.6414 GETTING -0.2800
-4.3404 GHOSH -0.3010
-4.3404 GIANT -0.3010
-4.3404 GIDDY -0.3001
-4.0393 GIFT -0.2954
-4.3404 GIGGLE -0.2869
-4.3404 GIGGLING -0.2869
-4.3404 GILLMER -0.3010
-3.3861 GIVE -0.2886
-3.4953 GIVEN -0.2884
-4.3404 GLOBAL -0.3010
-4.3404 GLORIFY -0.3007
-3.4373 GLORY -0.2772
-3.3861 GO -0.2787
-4.3404 GOAL -0.2992
-4.3404 GOD -0.2967
-3.8632 GOING -0.2962
-4.3404 GONE -0.3008
-4.3404 GONZALES -0.3010
-3.1099 GOOD -0.2782
-4.3404 GOODS -0.3010
-4.3404 GOP -0.3010
-4.3404 GORDON -0.2992
-4.0393 GOSH -0.2989
-3.7383 GOT -0.2965
-4.3404 GOTTEN -0.2960
-4.0393 GOULD -0.3007
-3.4373 GOVERNMENT -0.2931
-4.3404 GOVERNOR -0.2954
-4.3404 GRADE -0.2998
-4.3404 GRADUATED -0.2869
-4.3404 GRANDLY -0.3008
-3.5622 GRANDMA -0.2859
-4.0393 GRANDPA -0.2987
-4.3404 GRANTS -0.3008
-4.3404 GRATEFUL -0.2999
-4.0393 GRAVE -0.2992
-3.1643 GREAT -0.3000
-4.3404 GREATEST -0.3010
-4.3404 GREW -0.3007
-4.3404 GREY -0.3010
-3.5622 GROUP -0.2796
-4.3404 GS -0.3010
-4.3404 GS15S -0.2903
-4.3404 GUARANTEE -0.2967
-4.0393 GUERRERO -0.2903
-4.0393 GUESS -0.2995
-3.2990 GUY -0.2831
-3.7383 GUYS -0.2761
-4.3404 GUYSGALS -0.2995
-2.9786 HA -0.2864
-4.3404 HABSBURGS -0.3001
-4.3404 HACK -0.2869
-4.0393 HACKER -0.3005
-4.0393 HACKERS -0.2994
-4.3404 HACKS -0.3009
-2.6502 HAD -0.2721
-3.5622 HAGOOD -0.2929
-4.3404 HAHA -0.2869
-4.0393 HALF -0.2846
-4.3404 HALFMILLION -0.3010
-4.0393 HAND -0.2866
-4.3404 HANDBRAKE -0.2980
-4.3404 HANDED -0.2965
-4.3404 HANG -0.3010
-4.3404 HANNIBAL -0.2992
-3.8632 HAPPENED -0.2922
-4.3404 HAPPENINGS -0.3008
-4.3404 HAPPENS -0.3010
-4.3404 HAPPINESS -0.2967
-4.0393 HAPPY -0.2869
-3.7383 HARD -0.2961
-3.8632 HARDCORE -0.3008
-3.8632 HARDER -0.2921
-4.3404 HARDEST -0.3010
-4.3404 HARRIET -0.3010
-2.9786 HAS -0.2674
-4.3404 HASNT -0.3001
-3.8632 HAT -0.2867
-3.8632 HATE -0.2900
-4.3404 HATES -0.3002
-2.5845 HAVE -0.2583
-4.0393 HAVENT -0.3009
-3.5622 HAVING -0.2914
-4.3404 HAWKED -0.2869
-2.9254 HAWKING -0.2761
-4.0393 HAWKINGS -0.3008
-2.3626 HE -0.2887
-3.8632 HEAD -0.2868
-4.3404 HEADED -0.2869
-4.0393 HEADING -0.2960
-4.0393 HEADSTONE -0.2966
-4.0393 HEAR -0.3003
-4.3404 HEARD -0.3010
-4.3404 HEARING -0.2954
-4.3404 HEARTED -0.3010
-4.0393 HED -0.2998
-4.3404 HEIR -0.2965
-3.7383 HELD -0.2810
-3.6414 HELL -0.2952
-3.7383 HELP -0.2915
-4.3404 HELPING -0.3003
-3.2612 HER -0.2889
-3.2990 HERE -0.2750
-4.0393 HERES -0.2896
-4.3404 HERETICS -0.2869
-4.0393 HERITAGE -0.2953
-4.3404 HEROES -0.2869
-3.4953 HES -0.2953
-4.3404 HIERARCHY -0.3007
-3.6414 HIGH -0.3005
-4.3404 HIGHEST -0.3010
-4.3404 HIGHLY -0.3010
-4.0393 HILARIOUS -0.2823
-2.7722 HIM -0.2467
-4.0393 HIMSELF -0.2962
-4.3404 HINTS -0.2999
-3.8632 HIRE -0.3002
-4.0393 HIRED -0.2862
-4.3404 HIREDFIRED -0.3007
-3.7383 HIRING -0.2968
-2.4596 HIS -0.2952
-3.8632 HISPANIC -0.2994
-4.0393 HISTORICAL -0.3010
-3.2612 HISTORY -0.2806
-4.0393 HITLER -0.2961
-4.3404 HOBBLING -0.3008
-4.3404 HOLD -0.3008
-4.3404 HOLE -0.2965
-4.3404 HOLIER -0.3010
-4.3404 HOLODECK -0.2869
-4.0393 HOLY -0.3007
-4.3404 HOMBRES -0.3010
-4.3404 HOME -0.2992
-4.0393 HONESTLY -0.2896
-4.3404 HONEY -0.3009
-4.0393 HONOR -0.2986
-3.6414 HONORABLE -0.3009
-4.3404 HONORING -0.3003
-4.3404 HONORS -0.2967
-4.3404 HONOURARY -0.3010
-4.3404 HONOURED -0.3008
-4.3404 HOOVER -0.2980
-3.8632 HOPE -0.2931
-4.3404 HORRIFYING -0.3010
-4.0393 HORSES -0.2977
-4.3404 HOSTILE -0.3010
-4.0393 HOURS -0.3006
-4.3404 HOUSE -0.3010
-4.3404 HOUSEHOLD -0.2869
-4.3404 HOUSES -0.3010
-4.3404 HOUSTON -0.3009
-2.9602 HOW -0.2753
-3.8632 HOWEVER -0.2977
-4.3404 HUGE -0.3010
-4.0393 HUMAN -0.3009
-4.3404 HUMANS -0.3006
-4.3404 HUMBLE -0.3010
-3.5622 HUMOR -0.2824
-4.3404 HUMOUR -0.3008
-4.0393 HUNDREDS -0.2910
-4.3404 HUNGRY -0.3009
-4.3404 HUNTING -0.3010
-4.3404 HUSBAND -0.2999
-2.2198 I -0.2735
-4.3404 ICECREAM -0.3010
-3.8632 IDEA -0.2812
-3.7383 IDEAS -0.2895
-4.3404 IDIOT -0.2998
-2.9090 IF -0.2902
-4.3404 IGNORANCE -0.2977
-4.3404 IL -0.3010
-3.8632 ILL -0.3000
-3.6414 ILLEGAL -0.2856
-4.3404 ILLUSTRATES -0.3007
-3.1942 IM -0.2931
-4.3404 IMAGE -0.2954
-4.3404 IMAGINATIONS -0.2987
-3.4373 IMAGINE -0.2868
-4.3404 IMMEDIATE -0.3010
-4.3404 IMMEDIATELY -0.3010
-4.3404 IMMIGRANT -0.3010
-4.0393 IMMIGRANTS -0.2823
-4.3404 IMMUNITY -0.2954
-4.3404 IMO -0.3008
-4.3404 IMPACT -0.2998
-4.3404 IMPENETRABLE -0.3010
-4.3404 IMPORTANCE -0.2965
-4.3404 IMPORTANT -0.3007
-4.3404 IMPRISONED -0.3010
-2.1203 IN -0.2547
-4.3404 INCLUDED -0.3010
-4.3404 INCREASED -0.3003
-4.0393 INDEED -0.2853
-3.6414 INDEPENDENCE -0.2971
-4.3404 INDEPENDENT -0.2977
-4.3404 INDIAN -0.3009
-4.3404 INDICATOR -0.2987
-4.3404 INDUCEMENT -0.2954
-4.0393 INDUSTRY -0.2866
-4.3404 INFANTRY -0.3009
-4.3404 INFINITE -0.3010
-4.3404 INFLUENCE -0.2965
-4.3404 INFO -0.2954
-4.3404 INGESTING -0.3009
-4.3404 INHERITANCE -0.3010
-4.3404 INITIAL -0.3010
-4.3404 INITIALLY -0.3010
-4.0393 INSANE -0.3008
-4.0393 INSIDE -0.2954
-4.3404 INSINUATED -0.3010
-4.3404 INSTANCES -0.3009
-3.6414 INSTEAD -0.2903
-4.0393 INSTITUTION -0.2949
-4.3404 INSTITUTIONSAFRICAN -0.3005
-4.3404 INSTRUCTOR -0.3010
-4.3404 INSUBORDINATION -0.2869
-4.3404 INSULAR -0.2869
-3.7383 INSULT -0.2850
-4.3404 INSURMOUNTABLE -0.3010
-4.3404 INSURRECTION -0.2869
-4.3404 INTELLIGENCE -0.2967
-4.3404 INTELLIGENT -0.3007
-4.3404 INTENTIONALLY -0.3009
-4.0393 INTERESTING -0.3008
-3.7383 INTERVIEW -0.2996
-4.3404 INTERVIEWED -0.3003
-3.1099 INTO -0.2852
-4.3404 INTRICATE -0.3010
-4.0393 INTRODUCED -0.3008
-4.3404 INVEST -0.2977
-4.3404 INVIOLABILITY -0.2954
-4.3404 INVITE -0.3010
-4.3404 INVOLVE -0.3005
-4.3404 IPHONE -0.2954
-4.3404 IRISH -0.3008
-4.3404 IRONIC -0.3010
-2.3861 IS -0.2565
-4.3404 ISLAND -0.2869
-4.0393 ISNT -0.2987
-4.3404 ISRAELI -0.2967
-3.7383 ISSUE -0.2732
-4.3404 ISSUES -0.2995
-2.4266 IT -0.2623
-2.7841 ITS -0.2888
-4.3404 ITSELF -0.2997
-4.3404 ITWHEN -0.2903
-3.7383 IVE -0.3005
-4.3404 J -0.2869
-4.3404 JACKSON -0.3010
-4.3404 JAPAN -0.2967
-4.0393 JAPANESE -0.3008
-4.3404 JASON -0.2960
-4.3404 JAVA -0.3010
-4.0393 JEFF -0.3010
-4.3404 JEFFERSON -0.2977
-4.3404 JFK -0.3010
-3.6414 JOB -0.2828
-4.3404 JOBS -0.2999
-4.0393 JOHN -0.3010
-3.8632 JOHNSON -0.3009
-4.0393 JOIN -0.2888
-3.8632 JOINED -0.2903
-4.0393 JOINT -0.2966
-4.0393 JOKE -0.2890
-4.3404 JOKES -0.3004
-4.3404 JOKESTER -0.2967
-4.3404 JOKINGLY -0.3010
-4.0393 JOURNEY -0.3009
-4.3404 JULY -0.3010
-3.0616 JUST -0.2917
-4.3404 KAHNVENIENT -0.2869
-4.3404 KANSAS -0.3000
-3.8632 KEEP -0.2999
-4.3404 KEEPING -0.3007
-4.3404 KENTUCKY -0.3010
-4.3404 KEY -0.3009
-4.3404 KHAAAAAAAAAAAAAAN -0.2869
-3.2612 KHAN -0.2655
-4.3404 KHANNING -0.3010
-3.7383 KHANS -0.2868
-4.3404 KIDDING -0.3006
-4.3404 KIDS -0.3008
-4.3404 KILL -0.3005
-3.7383 KILLED -0.3000
-3.8632 KIND -0.2954
-4.3404 KINDA -0.3010
-3.7383 KING -0.2765
-4.3404 KINGDOM -0.2967
-3.7383 KINGS -0.2868
-3.7383 KNEW -0.2968
-3.2990 KNOW -0.2676
-4.0393 KNOWN -0.2981
-4.3404 KNOWS -0.3006
-4.3404 KOREA -0.3005
-4.3404 LACED -0.3009
-4.3404 LADY -0.2987
-4.3404 LAID -0.3003
-3.7383 LAND -0.2910
-4.3404 LANDED -0.2977
-3.5622 LARGE -0.3006
-4.3404 LARGELY -0.3010
-4.0393 LARGER -0.3006
-4.3404 LARRY -0.2869
-3.7383 LAST -0.3005
-4.3404 LATE -0.3010
-4.0393 LATTER -0.2990
-4.3404 LAUGH -0.3004
-4.3404 LAUGHABLY -0.3010
-4.3404 LAUGHED -0.3001
-4.0393 LAUGHING -0.2860
-4.3404 LAUGHS -0.2977
-3.8632 LAUGHTER -0.2987
-3.2264 LAW -0.2793
-3.4373 LAWS -0.2758
-4.3404 LAWYER -0.3010
-4.3404 LEADER -0.3001
-3.7383 LEADING -0.2958
-4.3404 LEAF -0.3010
-4.3404 LEARN -0.3006
-4.3404 LEARNED -0.2869
-3.8632 LEARNING -0.2951
-4.3404 LEAST -0.3010
-3.8632 LEAVING -0.2989
-3.5622 LED -0.2884
-4.3404 LEFT -0.2977
-3.6414 LEGAL -0.2825
-4.0393 LEGALIZATION -0.2869
-4.3404 LEGALIZED -0.2977
-3.8632 LEGEND -0.2812
-4.3404 LEGENDARY -0.3005
-4.0393 LEGIONS -0.2823
-4.3404 LEGISLATIVE -0.3010
-4.3404 LEGIT -0.3007
-3.8632 LESS -0.2981
-3.4953 LET -0.3002
-4.0393 LETS -0.3002
-3.6414 LETTER -0.2959
-4.3404 LETTERS -0.3010
-3.8632 LEVEL -0.2943
-4.3404 LIABLE -0.2965
-4.3404 LIBERALS -0.3009
-4.3404 LIBERTY -0.3010
-3.7383 LIES -0.3003
-3.1643 LIFE -0.2708
-4.3404 LIGHTING -0.2903
-4.3404 LIGHTS -0.2967
-4.3404 LIGHTSKINNED -0.3010
-2.9254 LIKE -0.2632
-4.3404 LIKED -0.2987
-3.8632 LIKELY -0.2929
-4.3404 LIMITS -0.2954
-4.0393 LINE -0.2846
-4.3404 LINES -0.2984
-4.0393 LINK -0.2869
-4.0393 LIST -0.2954
-4.3404 LISTEN -0.3008
-3.4373 LITTLE -0.2864
-4.3404 LIVE -0.2977
-3.7383 LIVED -0.2922
-4.3404 LIVESTOCK -0.3009
-3.8632 LIVING -0.2962
-4.3404 LMFAO -0.2869
-4.3404 LOG -0.3009
-4.3404 LOGIC -0.2869
-4.3404 LOGICAL -0.3010
-4.3404 LOGS -0.2954
-3.7383 LOL -0.2868
-4.3404 LOLITA -0.3010
-3.6414 LONG -0.2980
-4.3404 LONGER -0.3010
-3.5622 LOOK -0.2836
-3.8632 LOOKING -0.2989
-4.3404 LOOKS -0.2954
-4.3404 LOS -0.3010
-3.5622 LOSE -0.2858
-4.0393 LOSER -0.2851
-3.8632 LOSING -0.2995
-4.3404 LOSS -0.2869
-4.0393 LOST -0.3001
-3.1643 LOT -0.2943
-4.0393 LOTS -0.2954
-3.8632 LOVE -0.2977
-3.8632 LOVED -0.2965
-4.3404 LOVES -0.2965
-4.0393 LOW -0.2992
-4.3404 LOWERED -0.2903
-4.3404 LOWEST -0.3010
-4.0393 LUCK -0.2961
-4.3404 LUCKILY -0.2903
-4.3404 LUMINARY -0.3001
-4.3404 LUXEMBOURG -0.3008
-4.3404 M -0.2869
-4.3404 MACHIAVELLI -0.2980
-4.3404 MACHIAVELLIAN -0.3008
-3.3404 MADE -0.2860
-4.0393 MADLAD -0.2869
-4.3404 MAGNITUDE -0.2967
-4.3404 MAJOR -0.3010
-3.7383 MAJORITY -0.2954
-3.2990 MAKE -0.2931
-3.7383 MAKES -0.3006
-4.3404 MAKEUP -0.3003
-4.0393 MAKING -0.3004
-4.3404 MALICIOUS -0.3010
-3.1362 MAN -0.2717
-4.3404 MANAGED -0.2965
-4.3404 MANAGEMENT -0.2869
-4.3404 MANAGERS -0.2999
-4.3404 MANDATORY -0.3010
-4.3404 MANTEL -0.2954
-3.1099 MANY -0.2915
-4.3404 MAP -0.2965
-4.3404 MARCH -0.3010
-3.1942 MARIJUANA -0.2761
-4.3404 MARILYN -0.3010
-4.0393 MARRIAGES -0.2868
-4.0393 MARRIED -0.2958
-4.3404 MARRYING -0.3003
-4.3404 MARYLAND -0.3010
-4.3404 MASON -0.3010
-4.0393 MASS -0.3009
-3.7383 MASSACHUSETTS -0.2758
-4.3404 MASSIVE -0.3010
-4.3404 MASTER -0.2954
-3.7383 MATTER -0.2945
-4.3404 MATTERED -0.2980
-4.0393 MATTHEW -0.3010
-3.6414 MAY -0.2983
-4.3404 MAYBE -0.2995
-4.0393 MCAFEE -0.2867
-2.9979 ME -0.2691
-3.6414 MEAN -0.2820
-3.8632 MEANS -0.2958
-4.3404 MEANT -0.2965
-4.3404 MEDICAL -0.3008
-3.8632 MEET -0.2862
-4.3404 MELTED -0.2967
-4.3404 MEMBERS -0.2965
-4.3404 MEMORIAL -0.2977
-4.3404 MEMORIALIZED -0.2977
-3.3404 MEN -0.2671
-4.3404 MENTAL -0.2869
-4.0393 MENTION -0.3005
-4.3404 MENTIONED -0.2903
-4.0393 MESTIZO -0.3008
-4.0393 MET -0.2856
-4.3404 MEXIBRO -0.2869
-3.1362 MEXICAN -0.2828
-3.7383 MEXICANS -0.2956
-2.7069 MEXICO -0.2593
-4.3404 MEXICOIN -0.2869
-4.0393 MEXICOS -0.3010
-4.0393 MIDDLE -0.2869
-3.8632 MIGHT -0.3006
-4.3404 MILES -0.3010
-4.0393 MILITARY -0.2869
-4.3404 MIN -0.2869
-3.7383 MIND -0.2936
-4.3404 MINDS -0.2998
-4.0393 MINE -0.2856
-4.3404 MINOR -0.3008
-4.0393 MINORITY -0.2869
-4.3404 MINUS -0.3008
-4.3404 MISS -0.3003
-4.3404 MISSION -0.2869
-4.3404 MISSISSIPPI -0.3005
-4.3404 MIXED -0.3010
-4.3404 MIXING -0.2977
-4.3404 MOBILE -0.2869
-4.3404 MOBILITY -0.3000
-4.0393 MODERN -0.3009
-4.3404 MOHAWK -0.3010
-4.0393 MOM -0.3010
-3.8632 MOMENT -0.2837
-4.3404 MONEY -0.2992
-4.3404 MONGOL -0.3010
-4.3404 MONGOLIA -0.2992
-4.3404 MONGOLIAN -0.2967
-4.3404 MONGOLS -0.2992
-4.3404 MONITOR -0.2869
-4.3404 MONTH -0.3005
-4.3404 MONTHS -0.3003
-4.3404 MORAL -0.3009
-4.0393 MORALLY -0.2966
-4.3404 MORBID -0.3009
-3.2264 MORE -0.2823
-4.3404 MORMONS -0.3001
-3.1099 MOST -0.2903
-4.3404 MOSTLY -0.3010
-3.8632 MOTHERFUCKER -0.2820
-4.3404 MOTTO -0.3010
-4.3404 MOUNTIE -0.2991
-3.7383 MOVE -0.2791
-3.7383 MOVED -0.2907
-3.5622 MOVIE -0.2966
-3.3404 MUCH -0.2894
-4.3404 MUDDLED -0.3010
-4.3404 MULTIPLE -0.3010
-4.3404 MURDER -0.3007
-4.3404 MUSCLES -0.2869
-4.3404 MUSIC -0.2967
-4.0393 MUST -0.2999
-4.3404 MXICO -0.2869
-2.7963 MY -0.2988
-4.3404 MYSELF -0.2987
-3.7383 NAME -0.2992
-4.0393 NAMED -0.3008
-4.0393 NAMES -0.2993
-4.0393 NATION -0.2921
-4.0393 NATIONAL -0.3009
-4.3404 NATIONALITY -0.3010
-4.3404 NATIONALS -0.2994
-4.3404 NATIONSTATE -0.3010
-3.7383 NATIVE -0.3009
-4.3404 NATIVELY -0.2999
-4.3404 NATIVES -0.3005
-4.3404 NATURAL -0.2967
-3.8632 NATURE -0.2940
-3.8632 NEAR -0.2903
-4.3404 NEARLY -0.3010
-3.8632 NEED -0.2961
-4.3404 NEEDS -0.2960
-4.3404 NEENERNEENER -0.3008
-4.0393 NEGRO -0.2959
-4.3404 NEIGHBORS -0.2965
-4.3404 NEITHER -0.2903
-4.3404 NETWORK -0.2869
-4.3404 NEUTRAL -0.2984
-3.3861 NEVER -0.2946
-3.8632 NEW -0.3008
-4.3404 NEWHIRE -0.3010
-3.8632 NEWS -0.2921
-4.3404 NEWSPAPER -0.3010
-3.8632 NEXT -0.3010
-4.0393 NICE -0.2869
-3.8632 NIGGERS -0.2987
-2.9786 NO -0.2852
-4.3404 NOBLE -0.3010
-4.3404 NONSTOP -0.3010
-4.3404 NONWHITE -0.3010
-4.3404 NOONE -0.3010
-4.0393 NOR -0.3009
-4.0393 NORMAL -0.3007
-3.6414 NORTH -0.2785
-4.3404 NORTHERN -0.3008
-4.3404 NORTHWARD -0.3010
-2.7722 NOT -0.2816
-3.8632 NOTE -0.2874
-3.7383 NOTHING -0.2947
-4.3404 NOTICED -0.2987
-4.3404 NOTION -0.2954
-4.0393 NOTORIOUS -0.2992
-3.1942 NOW -0.2745
-3.7383 NSA -0.2866
-4.3404 NUBE -0.3009
-3.8632 NUMBER -0.2942
-4.3404 NUMBERED -0.2977
-4.3404 NUMEROUS -0.3010
-4.3404 NY -0.2967
-4.3404 O -0.3010
-4.3404 OBSTACLES -0.2954
-4.0393 OBVIOUS -0.2999
-4.3404 OCCASIONALLY -0.3009
-4.3404 OCCUPIED -0.3010
-4.0393 ODDS -0.2954
-1.8932 OF -0.2579
-3.4373 OFF -0.2847
-4.3404 OFFENSIVE -0.3010
-4.3404 OFFER -0.2992
-4.3404 OFFERED -0.2960
-4.3404 OFFERING -0.3009
-3.7383 OFFICE -0.2865
-4.3404 OFFICER -0.2954
-4.0393 OFFICERS -0.2965
-4.3404 OFFICIAL -0.3010
-4.3404 OFFICIALLY -0.2869
-4.3404 OFTEN -0.2997
-4.3404 OH -0.3000
-4.0393 OK -0.2997
-4.3404 OKLAHOMA -0.3005
-4.3404 OL -0.3010
-3.4373 OLD -0.2980
-4.3404 OLIVER -0.2980
-2.5410 ON -0.2452
-4.3404 ONBRAND -0.3005
-3.4953 ONCE -0.2933
-3.0181 ONE -0.2866
-4.0393 ONES -0.2823
-3.2990 ONLY -0.2990
-4.3404 ONTO -0.2960
-4.3404 OPEN -0.2903
-4.0393 OPENLY -0.2966
-4.3404 OPERATOR -0.3010
-4.0393 OPINION -0.2954
-4.3404 OPINIONS -0.2954
-4.3404 OPIOID -0.3010
-4.3404 OPIOIDS -0.2869
-4.3404 OPPORTUNITY -0.2869
-4.3404 OPPOSITE -0.3010
-4.3404 OPS -0.2967
-3.8632 OPTION -0.2949
-2.9424 OR -0.2868
-4.0393 ORDER -0.2846
-4.3404 ORDERED -0.2965
-4.3404 ORGANIZATION -0.2987
-4.3404 ORGANIZED -0.3007
-4.3404 ORGANIZERS -0.3006
-4.3404 ORIGINAL -0.3010
-4.3404 ORIGINATED -0.3006
-3.2990 OTHER -0.2918
-3.7383 OTHERS -0.2756
-3.8632 OTHERWISE -0.2973
-3.2264 OUR -0.2998
-4.3404 OURPECULIAR -0.3010
-4.3404 OURSELVES -0.2965
-2.9424 OUT -0.2513
-4.3404 OUTCOME -0.3005
-4.3404 OUTLET -0.3010
-4.3404 OUTWEIGH -0.2903
-3.2264 OVER -0.2688
-4.3404 OVERALL -0.3010
-4.3404 OVERRIDE -0.2967
-4.3404 OVERSEAS -0.2869
-3.3861 OWN -0.2968
-4.3404 OWNED -0.3003
-4.0393 OWNER -0.2864
-4.3404 OWNERS -0.3008
-4.3404 P -0.2869
-4.3404 PAID -0.3010
-4.3404 PALLAB -0.3010
-4.3404 PALLABCAMERAMAN -0.2869
-4.0393 PANEL -0.3009
-4.3404 PAPER -0.3008
-4.0393 PAPERS -0.3006
-4.3404 PARALLEL -0.3010
-4.3404 PARANOID -0.2869
-4.3404 PARENTS -0.3009
-4.3404 PARKING -0.3010
-4.3404 PARLANCE -0.2954
-3.2990 PART -0.2892
-4.3404 PARTICULARLY -0.3010
-4.0393 PARTS -0.2845
-4.3404 PARTY -0.3009
-4.3404 PARTYING -0.3009
-3.8632 PASS -0.2856
-4.3404 PASSED -0.2869
-4.3404 PASSWORDS -0.3010
-3.8632 PAST -0.3008
-4.3404 PATH -0.2954
-4.3404 PATRIARCHAL -0.3010
-4.3404 PATRICIOS -0.2869
-4.3404 PATRICK -0.3010
-4.3404 PATRIOT -0.2869
-4.3404 PATROLS -0.3010
-4.3404 PATTON -0.3010
-4.3404 PATTONS -0.3010
-4.3404 PAVED -0.2903
-3.6414 PAY -0.2947
-3.8632 PEACE -0.2824
-4.3404 PENALTY -0.2954
-2.7493 PEOPLE -0.2516
-4.3404 PEOPLES -0.2967
-4.3404 PERCENTAGE -0.2954
-4.3404 PERHAPS -0.2995
-4.3404 PERIODS -0.2977
-4.3404 PERPETUALLY -0.2977
-4.3404 PERSISTS -0.2869
-3.3861 PERSON -0.2808
-4.0393 PERSONAL -0.3009
-4.0393 PERSONALLY -0.3007
-3.7383 PERSONS -0.2998
-4.3404 PET -0.2967
-4.3404 PHASES -0.2869
-4.3404 PHILOSOPHICAL -0.2967
-4.3404 PHONE -0.3010
-4.3404 PHOTO -0.2954
-3.8632 PHYSICAL -0.3005
-4.3404 PHYSICS -0.3010
-4.3404 PICTURE -0.2960
-4.3404 PIERCINGS -0.2967
-4.3404 PILE -0.2954
-4.3404 PINNED -0.2903
-4.3404 PIONEER -0.2967
-4.3404 PISSED -0.2869
-3.7383 PLACE -0.2843
-4.3404 PLACED -0.2977
-4.3404 PLAIN -0.2967
-4.3404 PLANE -0.2980
-4.3404 PLANET -0.3003
-4.3404 PLANNING -0.2965
-4.3404 PLANTATION -0.3007
-3.8632 PLAY -0.2901
-3.7383 PLAYED -0.2868
-4.3404 PLAYER -0.3010
-4.0393 PLAYING -0.3010
-4.3404 PLAYSTYLE -0.2869
-4.0393 PLEASE -0.2869
-4.3404 PLIGHT -0.2954
-4.0393 PLOT -0.2977
-4.0393 PLUG -0.3003
-3.7383 PLUS -0.2952
-4.3404 PM -0.2869
-4.3404 POD -0.2869
-4.0393 PODCAST -0.2856
-3.8632 POINT -0.2861
-4.3404 POINTED -0.3005
-4.3404 POKER -0.2997
-4.3404 POLICE -0.3010
-3.7383 POLICY -0.2983
-4.3404 POLITICAL -0.3008
-4.3404 POLITICALLY -0.2869
-4.0393 POLITICS -0.2846
-4.3404 POPULAR -0.3010
-4.3404 POPULATED -0.3003
-3.8632 POPULATION -0.2821
-4.3404 POPUP -0.3010
-4.3404 PORN -0.2903
-4.3404 POSED -0.3003
-4.3404 POSITION -0.2977
-4.3404 POSITIVE -0.2995
-4.0393 POSSIBLE -0.3008
-4.3404 POST -0.3009
-4.3404 POSTNUT -0.3010
-3.3861 POT -0.2829
-4.3404 POTENT -0.3010
-3.8632 POTENTIAL -0.2975
-4.3404 POTSMOKING -0.3010
-4.3404 POTYOURE -0.3006
-4.3404 POUND -0.3010
-4.3404 POURED -0.3010
-3.8632 POWER -0.3006
-4.3404 POWERFUL -0.3010
-4.3404 PP -0.2869
-4.3404 PPL -0.3010
-4.3404 PRACTICAL -0.3010
-4.3404 PRACTICE -0.3001
-4.3404 PRANK -0.2869
-4.0393 PRANKS -0.2869
-4.3404 PRANKSTER -0.2998
-4.3404 PRE -0.3007
-4.3404 PRECISE -0.3010
-4.3404 PREDETERMINED -0.2967
-4.3404 PREFERRED -0.3009
-4.0393 PRESENT -0.3010
-4.3404 PRESERVED -0.2960
-3.7383 PRESIDENT -0.2945
-3.5622 PRESS -0.2909
-3.6414 PRETTY -0.3007
-4.3404 PREVAILING -0.3010
-4.3404 PREVIOUSLY -0.3000
-4.3404 PRICES -0.2869
-4.0393 PRIMARY -0.3010
-4.3404 PRIME -0.3010
-4.3404 PRINCE -0.2869
-4.0393 PRINCIPLE -0.2980
-4.3404 PRIOR -0.2869
-4.3404 PRISON -0.3010
-4.0393 PRIVATE -0.3010
-4.3404 PRO -0.3010
-3.4953 PROBABLY -0.2997
-4.0393 PROBLEM -0.2974
-4.0393 PROBLEMS -0.2995
-4.3404 PROCEEDED -0.2965
-4.0393 PROCESS -0.2936
-4.3404 PROCLAIMED -0.3010
-4.3404 PROFESSION -0.2869
-4.3404 PROFESSIONAL -0.3010
-4.3404 PROFESSIONALS -0.2995
-4.3404 PROFESSOR -0.3005
-4.3404 PROGRAMMERS -0.2967
-4.3404 PROGRAMMERSSOFTWARE -0.3003
-4.3404 PROGRAMMING -0.3010
-4.0393 PROHIBITED -0.2959
-4.3404 PROJECT -0.2984
-4.3404 PROMOTED -0.3003
-4.3404 PROMOTION -0.2869
-4.3404 PROMPTING -0.3007
-4.0393 PROPER -0.3009
-4.3404 PROPERLY -0.3009
-4.3404 PROPERTY -0.2967
-4.3404 PROS -0.2967
-4.3404 PROTECTED -0.3003
-3.8632 PROTECTION -0.2954
-3.8632 PROUD -0.2910
-4.3404 PROUDEST -0.3010
-4.3404 PROUDLY -0.3010
-4.3404 PROVIDENCE -0.2903
-4.3404 PSYCHEDELICS -0.2967
-4.3404 PUBLIC -0.3010
-4.3404 PUFF -0.2992
-4.3404 PUGSLEY -0.2967
-4.3404 PULLED -0.3005
-4.3404 PULLING -0.2903
-4.3404 PULLS -0.3005
-4.3404 PUNISHMENT -0.2992
-4.3404 PURPLE -0.3010
-4.3404 PURPOSES -0.2869
-4.3404 PUSHED -0.3009
-3.4953 PUT -0.2786
-4.3404 PUTS -0.3007
-4.3404 PUTTING -0.3006
-4.3404 QUADROON -0.2977
-4.3404 QUALIFY -0.3007
-4.3404 QUARRY -0.2869
-4.0393 QUESTION -0.2994
-4.0393 QUESTIONS -0.2998
-4.0393 QUICK -0.2869
-4.3404 QUIT -0.3009
-4.3404 QUOTE -0.2869
-4.3404 QUOTED -0.2999
-4.3404 R -0.2869
-3.8632 RACE -0.2954
-4.0393 RACES -0.2817
-3.6414 RACIAL -0.3008
-4.0393 RACISM -0.2824
-3.6414 RACIST -0.2988
-4.3404 RACISTS -0.3010
-4.0393 RAILROAD -0.2824
-4.0393 RAISE -0.2977
-4.3404 RALEIGH -0.2967
-4.3404 RAN -0.3008
-4.3404 RANDOLPH -0.3010
-4.3404 RANDOM -0.3010
-4.3404 RAPE -0.3010
-4.3404 RAPED -0.2960
-4.3404 RAPING -0.3010
-3.8632 RATHER -0.3002
-3.8632 RCMP -0.2868
-4.3404 RCRUSADERKINGS -0.3010
-4.3404 REACHING -0.3005
-4.3404 REACTION -0.2965
-3.8632 READ -0.2864
-3.4953 REAL -0.3001
-4.3404 REALISE -0.2984
-4.3404 REALITIES -0.2954
-4.3404 REALITY -0.3005
-4.0393 REALIZED -0.2990
-3.1643 REALLY -0.2992
-4.3404 REALM -0.2869
-3.4953 REASON -0.2803
-4.3404 REASONS -0.3008
-4.3404 REBELLED -0.2869
-4.3404 RECLAMATION -0.2954
-4.3404 RECOGNIZES -0.2987
-4.0393 RECOMMEND -0.2970
-4.3404 RECONSTRUCTION -0.2869
-4.3404 RECORD -0.2992
-4.3404 RECORDS -0.3004
-4.3404 RECOUNT -0.2994
-4.0393 RECOVER -0.2995
-4.3404 RECREATIONALLY -0.2869
-4.3404 RECRUITERS -0.2965
-4.3404 RECRUITMENT -0.2992
-4.3404 REDUCED -0.3009
-4.3404 REFER -0.2965
-4.3404 REFLECT -0.2903
-4.3404 REFUSAL -0.2965
-4.3404 REFUSE -0.2965
-4.3404 REGAIN -0.3003
-4.3404 REGARDED -0.3003
-4.3404 REGARDING -0.3003
-4.3404 REGARDLESS -0.2954
-3.6414 REGIMENT -0.2925
-4.3404 REGIMENTAL -0.3010
-4.3404 REGION -0.3010
-4.3404 REGULAR -0.3008
-4.3404 REGULARLY -0.3010
-4.3404 REJECTION -0.3009
-4.3404 RELATING -0.2965
-4.3404 RELATIVE -0.3010
-4.3404 RELATIVELY -0.3010
-4.3404 RELEVANT -0.3009
-4.3404 RELIED -0.2998
-4.3404 RELIEF -0.2980
-4.3404 REMAINED -0.2977
-4.3404 REMAINING -0.3010
-4.3404 REMARKABLE -0.3010
-3.3861 REMEMBER -0.2683
-4.3404 REMEMBERING -0.2995
-4.3404 REMEMBERS -0.3003
-4.3404 REMINDED -0.3006
-4.0393 REMINDER -0.2879
-3.8632 REMINDS -0.3006
-4.0393 REMOTELY -0.3009
-4.0393 REMOVED -0.3005
-4.3404 REPAID -0.2903
-4.3404 REPEAT -0.2987
-4.3404 REPEATS -0.2994
-4.3404 REPLACED -0.2997
-4.3404 REPLIED -0.3010
-4.3404 REPORT -0.2977
-4.3404 REPRESENTATION -0.2954
-4.0393 REPUBLIC -0.2954
-4.3404 REQUIRE -0.2987
-4.0393 REQUIRED -0.2986
-4.0393 REQUIREMENTS -0.2869
-4.3404 REQUISITIONED -0.3010
-4.3404 RESALE -0.2954
-4.3404 RESIDENTS -0.3006
-4.3404 RESIST -0.3008
-4.0393 RESPECT -0.2957
-4.3404 RESPECTIVE -0.3009
-4.3404 RESPONSIBILITY -0.2967
-3.7383 REST -0.2941
-4.3404 RESTED -0.3009
-4.3404 RESTS -0.3009
-4.3404 RETIRED -0.3005
-4.3404 RETRIEVE -0.2967
-3.8632 RETURN -0.2898
-4.3404 RETURNING -0.3009
-4.3404 REVELED -0.2977
-4.3404 REVERENCE -0.2869
-4.3404 REVERSE -0.3002
-4.3404 REVERSED -0.3003
-4.0393 REVOLUTION -0.2869
-4.3404 REWARD -0.2992
-4.3404 RHINE -0.2977
-4.3404 RICH -0.2869
-4.3404 RID -0.2954
-4.3404 RIDICULOUS -0.3009
-3.7383 RIGHT -0.2789
-4.3404 RIGHTFUL -0.3010
-3.7383 RIGHTS -0.2980
-4.3404 RIGID -0.3010
-4.3404 RINGING -0.2869
-4.3404 RISK -0.3010
-4.0393 RIVER -0.2965
-4.0393 ROAD -0.2824
-4.3404 ROASTING -0.3003
-4.0393 ROB -0.2998
-4.0393 ROBERT -0.3010
-4.3404 ROBOTIC -0.3010
-4.3404 ROBS -0.2998
-4.0393 ROCK -0.3008
-3.8632 ROLE -0.2811
-4.3404 ROMAN -0.3010
-4.3404 ROMANTICIZED -0.2980
-4.3404 ROMANTICIZING -0.3008
-4.3404 ROOM -0.2967
-4.3404 ROVICS -0.2869
-4.3404 RUG -0.3005
-3.6414 RULE -0.2851
-4.0393 RULER -0.2966
-4.3404 RULERS -0.2954
-3.8632 RULES -0.2869
-4.0393 RUMOR -0.2986
-4.0393 RUMOUR -0.2986
-3.5622 RUN -0.2992
-4.3404 RUNS -0.3010
-4.3404 RUPTURE -0.2967
-4.3404 RUSHED -0.3008
-4.0393 RUSSIA -0.3010
-4.3404 RUSSIAN -0.3009
-3.6414 S -0.2869
-4.3404 SAD -0.2965
-4.3404 SADLY -0.3003
-3.4373 SAID -0.2762
-4.3404 SALARY -0.3000
-4.3404 SALLY -0.2977
-4.3404 SALTED -0.2869
-4.3404 SAM -0.3010
-3.4373 SAME -0.3000
-3.7383 SAN -0.3010
-4.3404 SANDWICH -0.2869
-4.3404 SANDY -0.3010
-4.3404 SARCASM -0.2997
-4.3404 SAT -0.2977
-4.3404 SATISFYING -0.2991
-4.3404 SAUDI -0.3010
-4.0393 SAVAGE -0.3010
-4.3404 SAVVY -0.3010
-3.8632 SAW -0.2995
-3.2990 SAY -0.2705
-4.3404 SAYING -0.3004
-4.3404 SAYS -0.3006
-4.0393 SCALE -0.2992
-4.3404 SCARRING -0.2998
-4.3404 SCENARIO -0.2869
-4.0393 SCENE -0.3002
-3.8632 SCHOOL -0.2992
-4.0393 SCIENCE -0.2869
-4.3404 SCREAMING -0.3010
-4.3404 SCREAMS -0.2967
-4.3404 SCREENING -0.2967
-4.3404 SCUMBAG -0.3010
-4.3404 SEATTLE -0.3005
-4.3404 SECEDE -0.2977
-4.3404 SECOND -0.3010
-4.3404 SECRET -0.3010
-4.3404 SECRETS -0.2960
-4.0393 SECTOR -0.2975
-3.7383 SECURITY -0.2962
-3.6414 SEE -0.2948
-3.8632 SEEING -0.2995
-4.0393 SEEKING -0.2958
-4.0393 SEEM -0.2965
-4.0393 SEEMS -0.2869
-4.0393 SEEN -0.2858
-4.3404 SEES -0.3010
-4.0393 SELF -0.3005
-4.0393 SEND -0.2997
-3.5622 SENSE -0.2954
-4.0393 SENT -0.2960
-4.3404 SEPIA -0.3010
-3.8632 SERIES -0.2805
-4.3404 SERIOUSLY -0.3007
-4.3404 SERVANTS -0.2960
-4.3404 SERVE -0.2977
-4.0393 SERVICE -0.3002
-4.3404 SERVILE -0.3010
-4.0393 SET -0.3010
-4.3404 SETTLED -0.2977
-4.3404 SETTLEDOWN -0.2977
-4.3404 SETTLERS -0.3010
-4.0393 SEVERAL -0.3009
-3.7383 SHALL -0.2998
-4.3404 SHAME -0.3003
-4.3404 SHAPE -0.3009
-4.3404 SHARE -0.2997
-4.3404 SHARED -0.3003
-4.3404 SHARP -0.3010
-4.3404 SHATTERING -0.2903
-3.1643 SHAW -0.2687
-4.0393 SHAWS -0.3009
-3.4373 SHE -0.2959
-4.3404 SHEET -0.2967
-4.3404 SHERIFF -0.3001
-4.3404 SHIMMIES -0.2967
-3.5622 SHIT -0.2863
-4.3404 SHITLOAD -0.2954
-4.0393 SHORT -0.2998
-4.3404 SHORTAGES -0.2954
-4.0393 SHORTLY -0.3008
-3.5622 SHOULD -0.2983
-4.3404 SHOULDNT -0.2999
-3.5622 SHOW -0.2867
-4.3404 SHOWED -0.2998
-4.3404 SHOWS -0.2960
-4.3404 SHRANK -0.3003
-4.3404 SICK -0.2869
-4.3404 SICKNESS -0.2967
-3.7383 SIDE -0.2893
-4.3404 SIDES -0.2869
-4.3404 SIEGE -0.2954
-4.3404 SIGN -0.3003
-4.3404 SIGNS -0.2967
-4.3404 SILLY -0.3009
-4.0393 SILVER -0.2824
-4.3404 SIMILAR -0.3009
-4.0393 SIMPLE -0.3007
-3.6414 SIMPLY -0.2996
-4.0393 SIMPSONS -0.2869
-3.5622 SINCE -0.2878
-4.0393 SINGLE -0.3003
-3.8632 SISTER -0.2859
-4.3404 SITE -0.3010
-4.0393 SITUATION -0.2864
-4.3404 SIX -0.2954
-4.3404 SIXTH -0.3010
-4.3404 SIZES -0.3001
-4.3404 SKILLS -0.2992
-4.0393 SKIN -0.3010
-4.3404 SKIRTED -0.3010
-4.3404 SLASH -0.3010
-4.3404 SLAUGHTERED -0.3006
-3.2990 SLAVE -0.2926
-4.3404 SLAVECATCHERS -0.2987
-4.3404 SLAVEHOLDING -0.3010
-4.3404 SLAVERS -0.3001
-2.9424 SLAVERY -0.2593
-2.9979 SLAVES -0.2674
-4.3404 SLIM -0.2967
-4.3404 SLIPPING -0.3009
-4.3404 SLIVER -0.2869
-4.3404 SLOW -0.2977
-3.8632 SLOWLY -0.3010
-4.0393 SLUMPED -0.3010
-4.0393 SMALL -0.3010
-3.6414 SMART -0.2841
-3.8632 SMARTER -0.3008
-4.0393 SMARTEST -0.2999
-4.0393 SMH -0.2869
-3.4373 SMOKE -0.2942
-3.4953 SMOKED -0.2952
-3.7383 SMOKING -0.2866
-2.7383 SO -0.2648
-4.3404 SOBBED -0.2998
-4.3404 SOCIALLY -0.3010
-4.0393 SOCIETY -0.2824
-4.3404 SOCKET -0.3001
-4.0393 SOFTWARE -0.2985
-4.3404 SOIL -0.2992
-4.3404 SOLD -0.2869
-4.3404 SOLDIER -0.2967
-3.2990 SOLDIERS -0.2834
-4.3404 SOLUTION -0.2992
-4.3404 SOLUTIONS -0.2869
-3.0851 SOME -0.2944
-4.3404 SOMEBODY -0.3003
-4.0393 SOMEHOW -0.3005
-4.0393 SOMEONE -0.2977
-3.4953 SOMETHING -0.2885
-4.3404 SOMETIME -0.3008
-4.3404 SOMETIMES -0.2984
-4.3404 SOMEWHAT -0.3010
-4.3404 SOMEWHERE -0.2977
-3.8632 SON -0.2977
-4.0393 SONS -0.3010
-4.3404 SORROW -0.2991
-4.3404 SOUL -0.3010
-4.3404 SOUND -0.2869
-4.3404 SOUNDED -0.2967
-4.0393 SOUNDS -0.2949
-3.8632 SOURCE -0.2868
-3.0851 SOUTH -0.2650
-4.3404 SOUTHERNERS -0.3009
-4.3404 SOVEREIGNTY -0.2903
-3.4373 SPAIN -0.2821
-3.8632 SPANISH -0.3001
-4.0393 SPARE -0.3007
-3.8632 SPEAK -0.2812
-4.3404 SPEAKER -0.3007
-4.3404 SPEAKERS -0.2977
-4.0393 SPEAKS -0.2965
-4.3404 SPEARHEAD -0.3003
-4.3404 SPECIAL -0.3010
-4.3404 SPECIFICALLY -0.2992
-4.3404 SPEECH -0.3010
-4.3404 SPEED -0.2967
-4.0393 SPELLING -0.3005
-4.3404 SPENT -0.3010
-4.3404 SPICOLI -0.3001
-4.3404 SPINER -0.2967
-4.3404 SPIRIT -0.2954
-4.0393 SPIT -0.2862
-4.3404 SPLIT -0.2869
-4.3404 SPORTING -0.3010
-4.3404 SPRINKLING -0.2954
-4.3404 SQUATTERS -0.3010
-4.3404 ST -0.3010
-4.3404 STABILITY -0.3000
-4.3404 STADIUM -0.2977
-4.3404 STALIN -0.2965
-4.3404 STALLION -0.2997
-4.3404 STAND -0.2965
-4.0393 STANDARD -0.2997
-4.3404 STANDARDS -0.2869
-4.3404 STANDS -0.3009
-4.3404 STAR -0.3010
-4.3404 STARED -0.3001
-4.3404 STARRING -0.3010
-4.3404 START -0.3010
-4.0393 STARTED -0.3010
-3.4373 STATE -0.2774
-4.0393 STATED -0.2972
-3.2612 STATES -0.2757
-4.3404 STATESMEN -0.3001
-3.8632 STATING -0.2864
-4.3404 STATIONED -0.3001
-4.3404 STATUS -0.2954
-4.3404 STE -0.2967
-4.3404 STEPHAN -0.3005
-3.3404 STEPHEN -0.3005
-4.3404 STEPHENS -0.2903
-4.3404 STEVE -0.3010
-4.3404 STEVEN -0.3005
-4.3404 STICK -0.2984
-4.3404 STICKS -0.3007
-3.1643 STILL -0.2727
-4.3404 STIR -0.3007
-4.3404 STOLE -0.3010
-4.0393 STOLEN -0.3003
-4.3404 STONE -0.3010
-4.3404 STONED -0.2967
-4.0393 STONER -0.2869
-4.3404 STOOD -0.2967
-4.0393 STOP -0.3009
-4.0393 STOPPED -0.3001
-4.3404 STORE -0.2977
-3.8632 STORIES -0.2943
-4.3404 STORM -0.3009
-3.6414 STORY -0.2787
-4.0393 STRAIGHT -0.3010
-4.3404 STRATEGIST -0.3010
-4.3404 STRATEGY -0.3005
-4.3404 STREETS -0.2977
-4.3404 STRETCHED -0.3005
-4.3404 STRICTER -0.2869
-4.3404 STRING -0.3006
-4.3404 STRONG -0.3010
-4.3404 STRUGGLE -0.2869
-4.3404 STUDENTS -0.2869
-4.3404 STUFF -0.3005
-3.8632 STUPID -0.2869
-4.3404 STYLED -0.3009
-4.3404 SUBJUGATION -0.2954
-4.3404 SUBORDINATE -0.3010
-4.3404 SUBORDINATION -0.2965
-4.0393 SUBSTANCES -0.2869
-4.3404 SUCCEED -0.3007
-3.7383 SUCCESSFUL -0.3006
-3.5622 SUCH -0.2947
-4.3404 SUCK -0.3010
-4.3404 SUFFICIENT -0.3010
-4.3404 SUGGEST -0.2998
-4.3404 SUIT -0.2967
-4.3404 SUMMER -0.2987
-4.3404 SUPERIOR -0.3010
-4.3404 SUPERPOWER -0.2869
-4.3404 SUPPLY -0.2869
-4.0393 SUPPORT -0.2854
-4.3404 SUPREMACY -0.2869
-3.8632 SURE -0.2971
-4.3404 SURGEON -0.3010
-4.3404 SURPRISE -0.3003
-4.3404 SURPRISED -0.2869
-4.3404 SURRENDER -0.2967
-4.0393 SURROUNDED -0.3003
-4.3404 SURVEYS -0.2954
-4.3404 SWAMPS -0.2987
-4.3404 SWATHE -0.2954
-4.3404 SWAY -0.3008
-4.3404 SWEAR -0.3010
-3.7383 SWORD -0.2910
-4.3404 SWORN -0.3009
-4.0393 SYMPATHETIC -0.2966
-4.3404 SYSTEMS -0.3005
-4.0393 TACTICIAN -0.2842
-3.7383 TAKE -0.2814
-4.3404 TAKEN -0.3008
-4.0393 TAKING -0.3004
-4.0393 TALK -0.2863
-4.3404 TALKED -0.3004
-3.7383 TALKING -0.3002
-4.3404 TARGET -0.2869
-4.3404 TASKED -0.2997
-4.3404 TATTOOED -0.3010
-4.0393 TAUGHT -0.2955
-4.3404 TAXES -0.3002
-4.3404 TBH -0.2869
-4.3404 TEACH -0.3010
-4.3404 TEACHER -0.2977
-4.3404 TEAMS -0.3001
-4.3404 TEAR -0.2965
-3.6414 TECH -0.2869
-4.0393 TECHNICAL -0.3010
-4.3404 TECHNIQUES -0.3005
-4.3404 TECHNOLOGY -0.2903
-4.3404 TED -0.3010
-4.3404 TEHE -0.2869
-3.4953 TELL -0.2868
-4.3404 TELLING -0.3006
-4.3404 TEMPERATURE -0.2954
-4.3404 TEMUJIN -0.2869
-4.3404 TERRITORIES -0.2954
-3.5622 TERRITORY -0.2942
-4.3404 TERROR -0.2954
-4.3404 TERRORIST -0.3001
-3.7383 TEST -0.2983
-4.3404 TESTED -0.3003
-4.0393 TESTING -0.2964
-4.3404 TESTS -0.3006
-3.6414 TEXANS -0.2992
-2.8780 TEXAS -0.2557
-3.2990 THAN -0.2911
-4.3404 THANK -0.2998
-4.0393 THANKS -0.2992
-2.2685 THAT -0.2310
-4.3404 THATLL -0.3009
-3.1942 THATS -0.2820
-1.6128 THE -0.2732
-4.3404 THEATRE -0.2980
-2.7493 THEIR -0.2981
-2.9602 THEM -0.2711
-3.8632 THEMSELVES -0.2933
-3.3861 THEN -0.2898
-4.3404 THEORETICALLY -0.3006
-2.9979 THERE -0.2623
-3.5622 THERES -0.2955
-3.5622 THESE -0.2996
-2.4596 THEY -0.2918
-4.3404 THEYD -0.3009
-4.0393 THEYRE -0.3007
-4.3404 THEYVE -0.3009
-3.6414 THING -0.2932
-3.7383 THINGS -0.2992
-3.1362 THINK -0.2669
-4.0393 THINKING -0.2957
-4.3404 THINKS -0.3007
-4.3404 THIRTY -0.3010
-2.6328 THIS -0.2631
-3.2990 THOSE -0.2960
-4.3404 THOU -0.3010
-3.6414 THOUGH -0.2782
-3.7383 THOUGHT -0.2922
-4.3404 THOUSAND -0.3008
-4.0393 THOUSANDS -0.2812
-4.3404 THREAD -0.2984
-4.3404 THREAT -0.3010
-4.3404 THREATS -0.3002
-3.6414 THREE -0.2951
-4.3404 THRIVE -0.2998
-4.3404 THROAT -0.2869
-4.0393 THRONE -0.2851
-4.3404 THRONES -0.3010
-3.6414 THROUGH -0.2902
-4.3404 THROUGHOUT -0.3008
-4.3404 THROWING -0.2903
-4.3404 THROWS -0.3010
-4.3404 THUNK -0.2869
-4.3404 THURSDAY -0.3010
-4.3404 THUS -0.3008
-4.3404 THUSLY -0.3010
-4.3404 TI -0.3009
-4.3404 TIE -0.3009
-3.7383 TIL -0.2840
-4.3404 TILL -0.2984
-3.1099 TIME -0.2746
-4.0393 TIMES -0.2868
-4.3404 TINY -0.3010
-4.3404 TIP -0.3010
-4.0393 TITLE -0.2935
-4.3404 TLDR -0.3010
-1.9882 TO -0.2486
-4.3404 TODAY -0.3000
-4.0393 TOES -0.2954
-4.0393 TOGETHER -0.2997
-3.5622 TOLD -0.2996
-3.8632 TONE -0.2982
-3.5622 TOO -0.2861
-4.0393 TOOK -0.3003
-4.3404 TOOLS -0.2965
-4.0393 TOP -0.2943
-4.3404 TOTAL -0.3004
-4.3404 TOTALITY -0.2967
-4.0393 TOTALLY -0.3004
-4.3404 TOUCH -0.3010
-4.0393 TOUGH -0.2993
-4.3404 TOWARD -0.3000
-4.3404 TOWARDS -0.3007
-4.3404 TOWN -0.2977
-4.3404 TRADE -0.3010
-4.3404 TRADITIONAL -0.3010
-4.3404 TRAIN -0.3010
-4.3404 TRAINING -0.3009
-4.3404 TRAITORS -0.2965
-4.0393 TRAVELED -0.2965
-4.3404 TRAVELING -0.2977
-4.0393 TRAVERSING -0.2902
-4.3404 TRAVIS -0.3010
-4.3404 TREASURE -0.2967
-4.3404 TREAURE -0.2869
-4.3404 TREJO -0.2869
-4.3404 TREK -0.2903
-4.3404 TREMORS -0.2903
-3.8632 TRENCH -0.2997
-4.3404 TRIBES -0.3010
-4.0393 TRIED -0.2965
-4.3404 TRIPS -0.3010
-4.3404 TROLL -0.2967
-4.3404 TROLLING -0.3007
-3.4953 TROOPS -0.2950
-3.7383 TRUE -0.2963
-4.3404 TRULY -0.3008
-3.6414 TRUTH -0.2820
-4.3404 TRUTHS -0.2977
-4.0393 TRY -0.2965
-4.0393 TRYING -0.2965
-4.3404 TS -0.3010
-4.3404 TSHIRT -0.3006
-4.3404 TTS -0.2869
-4.3404 TU -0.3010
-4.3404 TUBMAN -0.2980
-3.7383 TURN -0.2980
-4.3404 TURNED -0.3007
-4.3404 TV -0.2869
-4.3404 TWICE -0.2869
-4.3404 TWINKLE -0.2977
-4.3404 TWO -0.3010
-3.8632 U -0.2869
-4.3404 UAFTERBURNER -0.3010
-4.3404 UGHHH -0.2984
-4.3404 UKRAINIAN -0.3005
-4.3404 UNBIASED -0.2967
-4.3404 UNCLE -0.2954
-4.3404 UNCOVERED -0.2960
-3.8632 UNDER -0.2899
-4.3404 UNDERCOVER -0.2869
-4.0393 UNDERGROUND -0.3010
-4.3404 UNDERSTOOD -0.2965
-4.3404 UNDISTINGUISHED -0.2869
-4.3404 UNIMPRESSIVE -0.3010
-3.4373 UNION -0.3001
-3.7383 UNITED -0.3005
-4.3404 UNITING -0.2903
-4.3404 UNIVERSAL -0.3010
-3.8632 UNIVERSE -0.3007
-4.3404 UNIVERSES -0.3002
-3.4373 UNIVERSITY -0.2900
-4.3404 UNLESS -0.2994
-3.8632 UNLIKE -0.2901
-4.3404 UNOFFICIAL -0.3010
-4.3404 UNPAID -0.3010
-4.3404 UNPLUGGED -0.3005
-4.3404 UNREASONABLE -0.3010
-4.3404 UNSUCCESSFUL -0.2869
-4.3404 UNTAPPED -0.3010
-3.8632 UNTIL -0.3007
-3.0616 UP -0.2740
-4.3404 UPDATE -0.3003
-3.3861 UPON -0.2871
-3.7383 UPPER -0.3007
-4.3404 UPS -0.2903
-4.3404 UPVOTE -0.2869
-4.3404 URIAH -0.3006
-4.3404 URINE -0.3010
-3.0851 US -0.2640
-3.8632 USE -0.2823
-3.5622 USED -0.2911
-4.0393 USING -0.2943
-4.3404 USTHE -0.3010
-4.3404 VALUABLE -0.3010
-4.3404 VALUE -0.3003
-4.3404 VAN -0.2869
-4.3404 VARIATION -0.2869
-3.7383 VARIOUS -0.3007
-4.3404 VARUS -0.3001
-4.0393 VAST -0.3010
-4.3404 VERBOSE -0.3010
-3.2264 VERY -0.3002
-4.3404 VIA -0.3002
-4.3404 VIABLE -0.3010
-4.3404 VICE -0.3010
-4.0393 VICENTE -0.3010
-4.3404 VICTIMS -0.3010
-4.3404 VICTORIES -0.2967
-3.7383 VIDEO -0.2851
-4.3404 VIDEOS -0.3002
-4.0393 VIEWS -0.2998
-4.3404 VINTAGE -0.3010
-4.3404 VIOLATION -0.2954
-4.3404 VIRTUOUS -0.3010
-3.8632 VISIT -0.2956
-4.3404 VISITED -0.3008
-4.0393 VISITORS -0.2869
-3.8632 VIVA -0.3001
-4.3404 VOLUNTEERING -0.3001
-4.3404 W -0.3010
-4.3404 WA -0.3010
-4.3404 WAAAAAAYYYYY -0.3008
-4.0393 WAGNER -0.2866
-4.0393 WAIT -0.3010
-4.3404 WAITING -0.2998
-4.3404 WAKE -0.2980
-4.3404 WALKING -0.3010
-4.3404 WALL -0.2967
-3.2264 WANT -0.2759
-3.3861 WANTED -0.2959
-3.0616 WAR -0.2759
-2.1614 WAS -0.2395
-4.3404 WASHED -0.3009
-3.6414 WASNT -0.2933
-4.3404 WATCHED -0.3009
-4.3404 WATCHING -0.3009
-4.3404 WATERISH -0.2869
-4.3404 WAVE -0.2987
-3.4373 WAY -0.2756
-4.3404 WAYS -0.2965
-4.3404 WAYSIDE -0.3000
-2.8490 WE -0.2956
-4.3404 WEAR -0.2960
-4.0393 WEARING -0.2959
-4.3404 WED -0.3009
-4.3404 WEDDINGS -0.2869
-3.3404 WEED -0.2830
-4.3404 WEEKEND -0.3009
-4.3404 WEIGHT -0.2991
-4.0393 WEIRD -0.2998
-4.3404 WEIRDLY -0.3010
-4.3404 WELCOME -0.2954
-4.0393 WELCOMING -0.2921
-3.1099 WELL -0.2779
-4.3404 WELLKNOWN -0.3010
-4.3404 WENT -0.2965
-2.8780 WERE -0.2827
-4.0393 WERENT -0.3005
-4.3404 WEST -0.2954
-4.3404 WESTERN -0.3005
-4.3404 WESTWARD -0.3010
-3.0181 WHAT -0.2732
-4.3404 WHATEVER -0.2903
-4.0393 WHATS -0.2903
-4.0393 WHEELCHAIR -0.2992
-2.7963 WHEN -0.2839
-4.0393 WHENEVER -0.2971
-3.1099 WHERE -0.2796
-3.8632 WHETHER -0.2991
-3.2612 WHICH -0.2796
-3.4953 WHILE -0.2867
-3.1362 WHITE -0.2975
-4.3404 WHITES -0.2967
-2.6776 WHO -0.2756
-4.3404 WHOEVER -0.2992
-3.5622 WHOLE -0.3005
-3.2612 WHY -0.2857
-4.3404 WIDDLING -0.3009
-4.3404 WIDELY -0.3010
-4.3404 WIFE -0.3009
-4.3404 WILDERNESS -0.3009
-3.3861 WILL -0.2988
-4.0393 WILLIAM -0.3009
-4.3404 WILLING -0.2965
-4.0393 WIN -0.3010
-4.3404 WIND -0.3010
-4.3404 WINDOWS -0.3010
-4.3404 WINFUCKING -0.3010
-4.3404 WINNING -0.2987
-4.0393 WINS -0.2903
-4.3404 WIRELESSLY -0.3010
-3.7383 WISH -0.2969
-4.3404 WISHED -0.2965
-2.5208 WITH -0.2688
-4.0393 WITHIN -0.2851
-3.5622 WITHOUT -0.2955
-4.3404 WITNESS -0.3003
-4.3404 WITTED -0.3010
-3.7383 WOMAN -0.2814
-3.6414 WOMEN -0.2812
-4.3404 WON -0.2903
-4.0393 WONDER -0.3003
-4.3404 WONDERFUL -0.2869
-4.3404 WONDERS -0.3005
-4.3404 WONT -0.3007
-4.3404 WOODS -0.2997
-3.1099 WORK -0.2868
-3.7383 WORKED -0.2950
-4.0393 WORKFORCE -0.2987
-3.8632 WORKING -0.2943
-3.5622 WORLD -0.2793
-4.3404 WORM -0.3010
-4.3404 WORRY -0.3004
-4.0393 WORST -0.2959
-3.5622 WORTH -0.2833
-4.0393 WORTHY -0.2954
-2.8780 WOULD -0.2910
-4.3404 WOULDA -0.3010
-3.8632 WOULDNT -0.3007
-4.0393 WOULDVE -0.3006
-4.3404 WOW -0.2869
-4.0393 WRATH -0.2954
-4.3404 WRECKED -0.3010
-4.3404 WRITERS -0.3010
-4.3404 WRITES -0.3010
-4.3404 WRITING -0.3010
-4.3404 WRITINGS -0.2954
-3.6414 WRONG -0.2722
-4.3404 X200B -0.2869
-4.3404 YA -0.3006
-4.3404 YALL -0.3007
-4.3404 YANKED -0.2960
-4.3404 YAY -0.3002
-3.8632 YEAH -0.2839
-4.0393 YEAR -0.2869
-3.2264 YEARS -0.2844
-4.3404 YELLING -0.2869
-4.3404 YES -0.2869
-4.3404 YESALSO -0.3006
-3.7383 YET -0.2970
-4.3404 YKNOW -0.2869
-4.3404 YMMV -0.2869
-2.5410 YOU -0.2572
-4.3404 YOUD -0.3007
-3.8632 YOUNG -0.3004
-4.3404 YOUNGER -0.2967
-4.3404 YOUNGEST -0.3010
-3.0393 YOUR -0.2994
-3.6414 YOURE -0.3003
-4.3404 YOUTUBE -0.3010
-4.3404 YOUVE -0.3006
-4.0393 YUP -0.2959
-4.3404 ZERO -0.3009
-4.0393 ZERODAYS -0.2994

\2-grams:
-0.6021 10 PM 0.0000
-0.6021 10 YEARS -0.2840
-0.3010 100 FUCKED -0.1761
-0.3010 1000 COMPANIES -0.2218
-0.3010 10GAUGE EAR 0.0000
-0.6021 11 BUT -0.2970
-0.6021 11 SUBSTANCES 0.0000
-0.3010 13 OF -0.2971
-0.3010 14TH 2023 0.0000
-0.3010 150 YEARS -0.1871
-0.6021 16 17 0.0000
-0.6021 16 OF -0.2404
-0.3010 17 AND -0.3000
-0.3010 18 1863 0.0000
-0.3010 1800 IS -0.2937
-0.3010 181224 </s> -0.3010
-0.3010 1818 WE -0.2940
-0.3010 18211871 UNIVERSITY -0.2109
-0.3010 1829 WHEN -0.2820
-0.3010 1836 THEY -0.2982
-0.3010 1843 IN -0.2931
-0.3010 1844 STATE -0.2730
-0.6021 1845 </s> -0.3010
-0.6021 1845 AND -0.3000
-0.3010 1854 WERE -0.2935
-0.3010 1856 SERIES -0.2218
-0.6021 1857 AND -0.3000
-0.6021 1857 STATES -0.2825
-0.3010 1858 LAW -0.2840
-0.3010 1863 THE -0.3006
-0.3010 18TH LEGIONS -0.1761
-0.6021 1917 </s> -0.3010
-0.6021 1917 ARTICLE -0.1761
-0.3010 1961 </s> -0.3010
-0.3010 1989 </s> -0.3010
-0.3010 19TH CENTURY 0.0000
-0.6021 1ST ARTICLE -0.2430
-0.6021 1ST WIFE 0.0000
-1.0000 2 COUNTRIES -0.1249
-1.0000 2 FLYING 0.0000
-1.0000 2 IN -0.2286
-1.0000 2 MONTHS 0.0000
-1.0000 2 SLAVERY -0.2833
-0.3010 20 YEARS -0.2840
-0.3010 200 </s> -0.3010
-0.3010 200000 BLACK -0.2272
-0.3010 2004 </s> -0.3010
-0.3010 2010 </s> -0.3010
-0.3010 2013 </s> -0.3010
-0.3010 2015 </s> -0.3010
-0.3010 2017 PP 0.0000
-0.7782 2018 </s> -0.3010
-0.7782 2018 BBC 0.0000
-0.7782 2018 WE -0.2940
-0.3010 2023 </s> -0.3010
-0.3010 23 2018 -0.2218
-0.3010 24INCH PURPLE 0.0000
-0.7782 25 ENSLAVED -0.1761
-0.7782 25 WHEN -0.2553
-0.7782 25 YEARS -0.2840
-0.3010 27 AT -0.1980
-0.3010 28 DAYS 0.0000
-1.0792 3 </s> -0.3010
-1.0792 3 INSTANCES 0.0000
-1.0792 3 LEGIONS -0.1761
-1.0792 3 PLAYSTYLE 0.0000
-0.7782 3 YEARS -0.1648
-0.6021 30 COL 0.0000
-0.6021 30 STATES -0.2825
-0.6021 300 CHARACTERS -0.1761
-0.6021 300 YEARS -0.1871
-0.3010 33 YEARS -0.2840
-0.3010 34 ZERODAYS -0.1761
-0.6021 4 OR -0.2923
-0.6021 4 PANEL -0.1761
-0.3010 400POUND POUND 0.0000
-0.3010 43 SAYS 0.0000
-1.0000 5 1857 -0.1761
-1.0000 5 1917 -0.1761
-1.0000 5 MIN 0.0000
-1.0000 5 OR -0.2923
-1.0000 5 PANEL -0.1761
-0.3010 50 OF -0.2987
-0.3010 54 </s> -0.3010
-0.7782 54TH </s> -0.3010
-0.4771 54TH MASSACHUSETTS -0.1761
-0.3010 6 A -0.2993
-0.3010 7090 OF -0.2404
-0.3010 75 OF -0.2404
-0.6021 80K </s> -0.3010
-0.6021 80K IS -0.2711
-0.3010 9 OR -0.2923
-0.3010 90 OF -0.2404
-0.3010 90S AND -0.2818
-0.3010 95 DRESS -0.2218
-3.1455 <s> 10 -0.1761
-3.1455 <s> 181224 0.0000
-3.1455 <s> 200000 0.0000
-2.1913 <s> A -0.2800
-2.8445 <s> ABSOLUTE 0.0000
-3.1455 <s> AFTERWARDS 0.0000
-3.1455 <s> ALARM -0.2218
-2.8445 <s> ALL -0.2704
-3.1455 <s> ALS -0.2430
-2.8445 <s> ALSO -0.2663
-2.5434 <s> ALTHOUGH 0.0000
-3.1455 <s> ALWAYS -0.2632
-3.1455 <s> AMERICA -0.2553
-2.8445 <s> AMERICAN -0.2596
-2.8445 <s> AN -0.2888
-3.1455 <s> ANCIENT -0.1761
-1.8445 <s> AND -0.2347
-2.8445 <s> ANOTHER -0.1761
-3.1455 <s> ANYTIME 0.0000
-3.1455 <s> APR 0.0000
-3.1455 <s> ARE -0.2919
-3.1455 <s> AROUND -0.2553
-2.4465 <s> AS -0.2518
-3.1455 <s> AWESOME -0.2430
-3.1455 <s> BARR 0.0000
-3.1455 <s> BASED -0.2218
-3.1455 <s> BE -0.2737
-3.1455 <s> BECAUSE -0.2711
-3.1455 <s> BLACKETT 0.0000
-3.1455 <s> BRINGS 0.0000
-3.1455 <s> BRUTAL -0.1761
-3.1455 <s> BUILT -0.1761
-3.1455 <s> BULL 0.0000
-2.1041 <s> BUT -0.2071
-3.1455 <s> BY -0.2264
-3.1455 <s> C 0.0000
-3.1455 <s> CAMERMAN 0.0000
-3.1455 <s> CAMPBELL 0.0000
-3.1455 <s> CHEEKY 0.0000
-3.1455 <s> CHINGON 0.0000
-3.1455 <s> CIA -0.2218
-3.1455 <s> CIVIL 0.0000
-3.1455 <s> CIVILIAN -0.1761
-3.1455 <s> CLASSIC -0.1761
-3.1455 <s> COL 0.0000
-3.1455 <s> COMMON -0.2553
-3.1455 <s> CONFEDERATES -0.2632
-3.1455 <s> CONGRATULATIONS 0.0000
-3.1455 <s> CONVENTIONS 0.0000
-3.1455 <s> COULDNT -0.2430
-3.1455 <s> D 0.0000
-3.1455 <s> DAMN -0.2218
-2.8445 <s> DAN 0.0000
-3.1455 <s> DEFINITION 0.0000
-3.1455 <s> DID -0.2788
-2.8445 <s> DO -0.2711
-2.8445 <s> DONT -0.2653
-3.1455 <s> DUNCAN 0.0000
-2.2424 <s> EDIT -0.0458
-3.1455 <s> EDITING 0.0000
-2.5434 <s> EVEN -0.2341
-3.1455 <s> EXPAND 0.0000
-2.8445 <s> FBI -0.2788
-3.1455 <s> FOLLOWING 0.0000
-2.6684 <s> FOR -0.2685
-3.1455 <s> FOUNDERS 0.0000
-3.1455 <s> FREE -0.2840
-3.1455 <s> FUCK -0.2688
-2.8445 <s> FUCKING -0.2499
-3.1455 <s> FUN -0.2041
-3.1455 <s> GARA 0.0000
-3.1455 <s> GEHNIS 0.0000
-3.1455 <s> GEN 0.0000
-2.6684 <s> GENGHIS -0.0792
-3.1455 <s> GET -0.2762
-3.1455 <s> GILLMER 0.0000
-2.8445 <s> GIVE -0.2499
-2.4465 <s> GLORY -0.1383
-2.6684 <s> GOOD -0.2467
-2.8445 <s> GOSH 0.0000
-3.1455 <s> GRANDMA -0.2632
-3.1455 <s> GRANDPA -0.1761
-3.1455 <s> GUYS -0.2430
-1.9694 <s> HA -0.0185
-3.1455 <s> HACKER -0.1761
-2.6684 <s> HAD -0.2875
-2.8445 <s> HAGOOD -0.1761
-3.1455 <s> HAPPENED -0.2218
-3.1455 <s> HARRIET 0.0000
-3.1455 <s> HAS -0.2915
-3.1455 <s> HAVE -0.2972
-3.1455 <s> HAVING -0.2632
-2.5434 <s> HAWKING -0.2285
-1.8233 <s> HE -0.1836
-3.1455 <s> HEARING 0.0000
-3.1455 <s> HERE -0.2808
-3.1455 <s> HERES -0.1761
-2.8445 <s> HES -0.2341
-2.3004 <s> HIS -0.2775
-3.1455 <s> HOLY -0.1761
-2.8445 <s> HONESTLY 0.0000
-2.5434 <s> HOW -0.2632
-2.8445 <s> HOWEVER -0.1249
-3.1455 <s> HUMANS 0.0000
-1.3326 <s> I -0.0969
-2.1455 <s> IF -0.1249
-3.1455 <s> IGNORANCE 0.0000
-2.3674 <s> IM -0.1963
-2.8445 <s> IMAGINE -0.2430
-2.4465 <s> IN -0.2129
-3.1455 <s> INTRODUCED -0.1761
-3.1455 <s> INVEST 0.0000
-2.8445 <s> IS -0.2888
-3.1455 <s> ISNT 0.0000
-2.1041 <s> IT -0.2133
-1.9694 <s> ITS -0.1761
-2.8445 <s> IVE -0.1761
-3.1455 <s> J 0.0000
-3.1455 <s> JEFFERSON 0.0000
-3.1455 <s> JOHNSON 0.0000
-3.1455 <s> KHAAAAAAAAAAAAAAN 0.0000
-3.1455 <s> KINDA 0.0000
-3.1455 <s> LAND -0.0969
-3.1455 <s> LAUGHS 0.0000
-3.1455 <s> LAUGHTER -0.2218
-3.1455 <s> LAWS -0.2109
-3.1455 <s> LEADING -0.1761
-2.8445 <s> LETS 0.0000
-2.6684 <s> LOL 0.0000
-2.8445 <s> LOTS 0.0000
-3.1455 <s> LUCKILY 0.0000
-3.1455 <s> M 0.0000
-3.1455 <s> MACHIAVELLIAN 0.0000
-2.8445 <s> MAKE -0.2374
-3.1455 <s> MAKES -0.0969
-3.1455 <s> MAKING -0.1761
-2.6684 <s> MAN -0.2109
-2.8445 <s> MANY -0.2747
-2.6684 <s> MARIJUANA -0.1963
-3.1455 <s> MEXICAN -0.2872
-2.2424 <s> MEXICO -0.1727
-3.1455 <s> MEXICOS -0.1761
-3.1455 <s> MORE -0.2840
-2.5434 <s> MOST -0.1845
-3.1455 <s> MUCH -0.2788
-2.2424 <s> MY -0.2268
-3.1455 <s> NEENERNEENER 0.0000
-3.1455 <s> NICE -0.1761
-3.1455 <s> NO -0.2915
-3.1455 <s> NOTE -0.2218
-3.1455 <s> NOTHING -0.2430
-2.5434 <s> NOW -0.2341
-3.1455 <s> OF -0.2987
-3.1455 <s> OK -0.1761
-2.6684 <s> ON -0.2762
-3.1455 <s> ONCE -0.2688
-3.1455 <s> ONE -0.1402
-3.1455 <s> ORGANIZED 0.0000
-3.1455 <s> OUR -0.2663
-3.1455 <s> PALLABCAMERAMAN 0.0000
-3.1455 <s> PART -0.1047
-3.1455 <s> PAVED 0.0000
-3.1455 <s> PERHAPS 0.0000
-2.8445 <s> PLUS -0.1761
-3.1455 <s> PUGSLEY 0.0000
-3.1455 <s> RACISM -0.1761
-3.1455 <s> RACIST -0.2553
-3.1455 <s> RAPED 0.0000
-3.1455 <s> RCMP -0.2218
-3.1455 <s> RCRUSADERKINGS 0.0000
-3.1455 <s> REMARKABLE 0.0000
-3.1455 <s> REMINDER -0.1761
-3.1455 <s> REMINDS 0.0000
-2.5434 <s> S 0.0000
-3.1455 <s> SADLY 0.0000
-3.1455 <s> SEEKING -0.1761
-3.1455 <s> SEES 0.0000
-3.1455 <s> SERIOUSLY 0.0000
-2.3674 <s> SHAW -0.1663
-3.1455 <s> SHAWS -0.1761
-2.8445 <s> SHE -0.2109
-3.1455 <s> SHIT -0.1249
-2.6684 <s> SHOW -0.1761
-2.8445 <s> SLAVERY -0.2553
-3.1455 <s> SLIPPING 0.0000
-3.1455 <s> SMART -0.2553
-3.1455 <s> SMH 0.0000
-3.1455 <s> SMOKING -0.1761
-2.1041 <s> SO -0.2041
-2.8445 <s> SOME -0.2762
-3.1455 <s> SOMETIMES 0.0000
-3.1455 <s> SON 0.0000
-2.8445 <s> SOURCE 0.0000
-2.8445 <s> SPAIN -0.2430
-3.1455 <s> SPIT -0.1761
-2.5434 <s> STEPHEN 0.0000
-3.1455 <s> STEVEN 0.0000
-3.1455 <s> STILL -0.2863
-3.1455 <s> STORY -0.2553
-3.1455 <s> SUCH -0.2632
-2.8445 <s> TEXAS -0.2858
-2.8445 <s> THANKS 0.0000
-2.5434 <s> THAT -0.2880
-3.1455 <s> THATLL 0.0000
-2.3004 <s> THATS -0.1549
-1.4553 <s> THE -0.2619
-2.8445 <s> THEN -0.2499
-3.1455 <s> THERE -0.2704
-2.8445 <s> THERES -0.1249
-1.9694 <s> THEY -0.2398
-3.1455 <s> THEYD 0.0000
-1.9414 <s> THIS -0.1955
-2.8445 <s> THOSE -0.2596
-3.1455 <s> THROWS 0.0000
-3.1455 <s> TI 0.0000
-2.8445 <s> TIL -0.1761
-3.1455 <s> TLDR 0.0000
-3.1455 <s> TOOK -0.1761
-3.1455 <s> UGHHH 0.0000
-3.1455 <s> UNION -0.2430
-2.6684 <s> UNIVERSITY -0.1383
-3.1455 <s> UNLIKE -0.1249
-3.1455 <s> UNTIL -0.2218
-3.1455 <s> UPON -0.2762
-3.1455 <s> URIAH 0.0000
-3.1455 <s> VERY -0.2840
-3.1455 <s> VICENTE 0.0000
-3.1455 <s> VINTAGE 0.0000
-2.6684 <s> VIVA 0.0000
-3.1455 <s> WAIT -0.1761
-2.1913 <s> WE -0.1807
-2.8445 <s> WEIRD 0.0000
-2.3004 <s> WELL -0.2009
-3.1455 <s> WENT 0.0000
-3.1455 <s> WERE -0.2858
-2.3004 <s> WHAT -0.2093
-3.1455 <s> WHATS -0.1761
-2.1913 <s> WHEN -0.1549
-3.1455 <s> WHENEVER -0.1761
-3.1455 <s> WHILE -0.2341
-3.1455 <s> WHITE -0.2730
-2.8445 <s> WHO -0.2768
-3.1455 <s> WHY -0.2825
-3.1455 <s> WISH -0.2430
-2.5434 <s> WITH -0.2632
-3.1455 <s> WITNESS 0.0000
-2.8445 <s> WORTH -0.2218
-2.8445 <s> WOULD -0.2858
-3.1455 <s> WOULDVE -0.1761
-3.1455 <s> WRATH 0.0000
-3.1455 <s> X200B 0.0000
-3.1455 <s> YA 0.0000
-3.1455 <s> YAY 0.0000
-3.1455 <s> YEAH -0.2218
-3.1455 <s> YES 0.0000
-3.1455 <s> YMMV 0.0000
-2.1913 <s> YOU -0.2499
-3.1455 <s> YOUD 0.0000
-3.1455 <s> YOURE -0.2553
-2.8445 <s> YUP 0.0000
-2.7059 A 24INCH 0.0000
-2.7059 A 4 -0.1761
-2.7059 A 400POUND 0.0000
-2.4048 A </s> -0.3010
-2.7059 A A -0.3002
-2.7059 A ALTERNATIVE -0.1761
-2.7059 A BACK -0.2762
-2.4048 A BILLION 0.0000
-2.7059 A BIT -0.2218
-2.7059 A BLACK -0.2872
-2.7059 A BODYGUARD 0.0000
-2.7059 A BORDER -0.2218
-2.7059 A BRIEF -0.1761
-2.7059 A BROWNIE 0.0000
-2.7059 A BRUTAL -0.1761
-2.2287 A BUNCH 0.0000
-2.7059 A CABLE 0.0000
-2.7059 A CHILDHOOD 0.0000
-2.7059 A CLEAR 0.0000
-2.7059 A CLOSE -0.2218
-2.7059 A COMEDIAN 0.0000
-2.7059 A COMMON -0.2553
-2.7059 A COMPELLING 0.0000
-2.4048 A CONFEDERATE -0.2430
-2.7059 A CONSULTING 0.0000
-2.7059 A COP 0.0000
-2.4048 A COUNTRY -0.2341
-2.4048 A CRUSH 0.0000
-2.7059 A CS -0.2218
-2.7059 A DAMN -0.2218
-2.7059 A DAY -0.2688
-2.7059 A DELIGHT 0.0000
-2.4048 A DICK -0.1249
-2.7059 A DIFFERENT 0.0000
-2.7059 A DINNER 0.0000
-2.7059 A DIRECTSUICIDAL 0.0000
-2.7059 A DONT -0.2775
-2.7059 A DRESS -0.2218
-2.7059 A DUDE -0.2730
-2.7059 A FACT -0.2762
-2.7059 A FAMOUS -0.2218
-2.7059 A FANTASTIC -0.1761
-2.7059 A FATHER -0.2553
-2.7059 A FEDERAL -0.2430
-2.7059 A FEMINIST -0.1761
-2.4048 A FEW -0.1461
-2.7059 A FIFTYDOLLAR 0.0000
-2.7059 A FLAGRANT 0.0000
-2.2287 A FREE -0.2478
-2.7059 A FRIDAY 0.0000
-2.7059 A FRIEND -0.1761
-2.7059 A FUNCTION -0.1761
-2.7059 A FUNNY -0.1249
-2.7059 A GAME -0.1761
-2.7059 A GENERAL -0.2430
-2.7059 A GENETIC 0.0000
-2.7059 A GENIUS -0.1761
-2.7059 A GENOCIDAL -0.1761
-2.7059 A GEORGIA -0.2218
-2.7059 A GIANT 0.0000
-2.1038 A GOOD -0.2467
-2.7059 A GOVERNMENT -0.2730
-1.8608 A GREAT -0.1663
-2.7059 A GROUP -0.1249
-2.7059 A GUARANTEE 0.0000
-2.7059 A GUY -0.2596
-2.7059 A HALFMILLION 0.0000
-2.7059 A HARD -0.2430
-2.7059 A HELL -0.2553
-2.7059 A HIGH -0.2553
-2.7059 A HONORABLE -0.2553
-2.7059 A HORRIFYING 0.0000
-2.7059 A HOSTILE 0.0000
-2.7059 A HUGE 0.0000
-2.7059 A INTERVIEW -0.2430
-2.7059 A JOB -0.2553
-2.4048 A JOINT 0.0000
-2.7059 A JOKESTER 0.0000
-2.7059 A KEY 0.0000
-2.7059 A KHANNING 0.0000
-2.7059 A KIND -0.2218
-2.7059 A KING -0.1761
-2.7059 A LADY 0.0000
-2.4048 A LARGE -0.2218
-2.7059 A LARGER -0.1761
-2.7059 A LEGEND -0.1249
-2.4048 A LETTER -0.2041
-2.7059 A LIFE -0.2863
-2.7059 A LIGHTSKINNED 0.0000
-2.0069 A LITTLE -0.1383
-2.7059 A LONG -0.2553
-2.4048 A LOOK -0.1761
-2.4048 A LOSER 0.0000
-1.5298 A LOT 0.0000
-2.7059 A LUXEMBOURG 0.0000
-2.7059 A MAJOR 0.0000
-2.7059 A MALICIOUS 0.0000
-2.7059 A MANDATORY 0.0000
-2.7059 A MARYLAND 0.0000
-2.7059 A MASON 0.0000
-2.4048 A MASS 0.0000
-2.7059 A MASSIVE 0.0000
-2.7059 A MASTER 0.0000
-2.7059 A MATTER -0.2430
-2.7059 A MEMORIAL 0.0000
-2.4048 A MEXICAN -0.2730
-2.7059 A MOMENT -0.2218
-2.7059 A MONGOL 0.0000
-2.7059 A MORE -0.2840
-2.7059 A MOTTO 0.0000
-2.7059 A MOUNTIE 0.0000
-2.7059 A NATION -0.1761
-2.7059 A NEAR -0.2218
-2.7059 A NORMAL -0.1761
-2.7059 A NOT -0.2951
-2.7059 A NOTORIOUS -0.1761
-2.7059 A NUMBER -0.1249
-2.7059 A PASS -0.2218
-2.7059 A PERSON -0.2499
-2.7059 A PHOTO 0.0000
-2.7059 A PILE 0.0000
-2.7059 A PLOT -0.1761
-2.7059 A POT -0.2762
-2.7059 A POTENT 0.0000
-2.7059 A POWER -0.2218
-2.7059 A POWERFUL 0.0000
-2.7059 A PRECISE 0.0000
-2.7059 A PRETTY -0.2553
-2.7059 A PRIMARY -0.1761
-2.7059 A PRIVATE -0.1761
-2.7059 A PRO 0.0000
-2.7059 A PROBLEM -0.1761
-2.7059 A PROGRAMMING 0.0000
-2.7059 A PROMOTION 0.0000
-2.7059 A PROPER -0.1761
-2.7059 A PUFF 0.0000
-2.7059 A QUADROON 0.0000
-2.7059 A QUICK -0.1761
-2.7059 A RACIAL -0.2041
-2.7059 A REAL -0.2688
-2.7059 A REALIZED -0.1761
-2.2287 A REALLY -0.2553
-2.2287 A REASON -0.1963
-2.7059 A RECORD 0.0000
-2.7059 A REGIMENT -0.2553
-2.7059 A REGULAR 0.0000
-2.7059 A RELIEF 0.0000
-2.7059 A REPORT 0.0000
-2.7059 A RIDICULOUS 0.0000
-2.7059 A ROLE -0.2218
-2.7059 A SANDY 0.0000
-2.7059 A SCENE -0.1761
-2.7059 A SECURITY -0.2430
-2.7059 A SERVICE -0.1761
-2.7059 A SET -0.1761
-2.7059 A SHARP 0.0000
-2.7059 A SHITLOAD 0.0000
-2.7059 A SIDE -0.2430
-2.7059 A SIMILAR 0.0000
-2.7059 A SIMPLE -0.1761
-2.7059 A SINGLE -0.1761
-2.7059 A SITUATION -0.1761
-2.4048 A SLAVE -0.2596
-2.4048 A SMALL 0.0000
-2.7059 A SMART -0.2553
-2.7059 A SOCKET 0.0000
-2.7059 A SOURCE -0.1249
-2.7059 A SPIRIT 0.0000
-2.7059 A SPRINKLING 0.0000
-2.7059 A STALLION 0.0000
-2.4048 A STATE -0.2109
-2.7059 A STONE 0.0000
-2.7059 A SUIT 0.0000
-2.7059 A TATTOOED 0.0000
-2.7059 A TEAR 0.0000
-2.7059 A TERRORIST 0.0000
-2.7059 A THING -0.2553
-2.7059 A THRONE -0.1761
-2.7059 A THURSDAY 0.0000
-2.7059 A TINY 0.0000
-2.7059 A TOUGH -0.1761
-2.7059 A TOWN 0.0000
-2.7059 A TREAURE 0.0000
-2.7059 A TRUE -0.2430
-2.7059 A TS 0.0000
-2.7059 A TWINKLE 0.0000
-2.2287 A UNIVERSE 0.0000
-2.7059 A UNIVERSITY -0.2730
-2.7059 A URINE 0.0000
-2.2287 A VERY -0.2478
-2.7059 A VIDEO -0.2430
-2.7059 A WELLKNOWN 0.0000
-2.7059 A WHITE -0.2730
-2.7059 A WHOLE -0.2632
-2.7059 A WINFUCKING 0.0000
-2.7059 A WORM 0.0000
-2.7059 A YEAR 0.0000
-2.7059 A YOUNG -0.2218
-0.3010 ABHORRENT </s> -0.3010
-0.3010 ABILITY TO -0.2952
-1.3010 ABLE COMMANDER 0.0000
-0.3468 ABLE TO -0.2853
-0.3010 ABOLISH SLAVERY -0.2553
-0.3010 ABOLISHED SLAVERY -0.2742
-0.3010 ABOLITION OF -0.2964
-0.3010 ABOLITIONIST LEAVING -0.2218
-0.3010 ABOLITIONISTS IN -0.2997
-1.7924 ABOUT 33 0.0000
-1.7924 ABOUT </s> -0.3010
-1.7924 ABOUT AMERICA -0.2553
-1.7924 ABOUT ANY -0.2499
-1.7924 ABOUT AS -0.2971
-1.7924 ABOUT CUTTING 0.0000
-1.7924 ABOUT EASTERN -0.1761
-1.7924 ABOUT FREEDOM -0.2825
-1.4914 ABOUT GENGHIS -0.0414
-1.7924 ABOUT GS15S 0.0000
-1.7924 ABOUT HER -0.2825
-1.7924 ABOUT HITLER -0.1761
-1.4914 ABOUT HOW -0.2825
-1.3153 ABOUT IT -0.2623
-1.7924 ABOUT OUR -0.2840
-1.7924 ABOUT POT -0.2218
-1.7924 ABOUT RANDOM 0.0000
-1.7924 ABOUT SLAVERY -0.2923
-1.7924 ABOUT SOMETHING -0.2688
-1.7924 ABOUT STATES -0.2825
-1.7924 ABOUT THE -0.3002
-1.7924 ABOUT THEM -0.2919
-1.4914 ABOUT THIS -0.2656
-1.7924 ABOUT TO -0.3001
-1.7924 ABOUT WHAT -0.2906
-1.7924 ABOUT WHITE -0.2872
-0.6021 ABOVE </s> -0.3010
-0.6021 ABOVE HAPPENINGS 0.0000
-0.6021 ABSOLUTE LEGEND -0.1249
-0.6021 ABSOLUTE MADLAD 0.0000
-0.3010 ABSOLUTELY DENY 0.0000
-0.3010 ABUSE OUT -0.2455
-0.3010 ACCENT </s> -0.3010
-0.3010 ACCEPT THIS -0.2968
-0.6021 ACCEPTED AMERICAN -0.2808
-0.6021 ACCEPTED HIS -0.2982
-0.3010 ACCESS TO -0.3001
-0.3010 ACCOMMODATE ALL -0.2808
-0.3010 ACCOUNT COLONEL 0.0000
-0.3010 ACCOUNTING AND -0.3000
-0.3010 ACCURATE TO -0.2952
-0.3010 ACHIEVE THEIR -0.2840
-0.3010 ACHIEVEMENTS PROMOTED 0.0000
-0.3010 ACHIEVING INDEPENDENCE -0.1461
-0.3010 ACID BURN 0.0000
-0.7782 ACT AT -0.1980
-0.7782 ACT CONSIDERED -0.2430
-0.7782 ACT TO -0.3001
-0.3010 ACTION ON -0.2341
-0.3010 ACTIONS UNITED -0.2430
-1.1461 ACTUALLY A -0.2950
-1.1461 ACTUALLY ALREADY -0.2218
-1.1461 ACTUALLY CURIOUS 0.0000
-1.1461 ACTUALLY DIED 0.0000
-1.1461 ACTUALLY JUST -0.2894
-1.1461 ACTUALLY SHOWED 0.0000
-1.1461 ACTUALLY UKRAINIAN 0.0000
-0.3010 ADD A -0.3002
-0.3010 ADDERALL </s> -0.3010
-0.3010 ADJUST HIS -0.2982
-0.6021 ADMIRABLE AND -0.2960
-0.6021 ADMIRABLE MAN -0.2730
-0.6021 ADOPTED INTO -0.2747
-0.6021 ADOPTED SECRET 0.0000
-0.3010 ADORED BEING -0.2881
-0.6021 ADVANTAGE OF -0.3003
-0.6021 ADVANTAGE WE -0.2940
-0.6021 AF AND -0.3000
-0.6021 AF LMFAO 0.0000
-0.3010 AFFECTING ESCAPE -0.2688
-0.3010 AFFIDAVIT THAT -0.2973
-0.6021 AFRICAN TEXANS -0.2553
-0.6021 AFRICAN WAS -0.2981
-0.3010 AFRO MEXICANS -0.2430
-0.3010 AFROMEXICAN </s> -0.3010
-1.4150 AFTER ACHIEVING 0.0000
-1.4150 AFTER HIM -0.2951
-1.1139 AFTER HIS -0.2924
-1.4150 AFTER I -0.2994
-1.4150 AFTER LEARNING -0.2218
-1.4150 AFTER LIVING -0.2218
-1.4150 AFTER OUR -0.2840
-0.9379 AFTER THE -0.2965
-1.4150 AFTER THEY -0.2982
-1.4150 AFTER WATCHING 0.0000
-0.3010 AFTERWARDS HAWKING -0.2926
-0.3010 AGAIN AND -0.2960
-0.6021 AGAINST A -0.3002
-0.6021 AGAINST THE -0.3006
-0.6021 AGE </s> -0.3010
-0.6021 AGE WITH -0.2560
-0.6021 AGENCIES HAS -0.2915
-0.6021 AGENCIES HAVE -0.2972
-0.3010 AGENCY </s> -0.3010
-0.6021 AGENT </s> -0.3010
-0.6021 AGENT BUT -0.2888
-0.3010 AGITATING QUESTIONS -0.1761
-0.3010 AGO AND -0.2960
-0.6021 AGREE HE -0.2918
-0.6021 AGREE TO -0.3001
-0.3010 AIMING FOR -0.2986
-0.3010 AINT DEAD 0.0000
-0.6021 ALABAMA GEORGIA -0.2218
-0.6021 ALABAMA LET -0.1963
-0.7782 ALAMO </s> -0.3010
-0.7782 ALAMO BATTLE -0.2632
-0.7782 ALAMO HAPPENED -0.2218
-0.7782 ALARM RINGING 0.0000
-0.7782 ALARM SOUNDED 0.0000
-0.7782 ALARM WAS -0.2981
-0.3010 ALERTED MY -0.2948
-0.3010 ALEXANDER STEPHENS 0.0000
-0.3010 ALIEN LIFE -0.2389
-0.3010 ALIENS VISIT -0.2218
-0.3010 ALII TU 0.0000
-0.3010 ALIVE AND -0.3000
-1.6435 ALL 4 -0.1761
-1.6435 ALL </s> -0.3010
-1.6435 ALL AFTER -0.2478
-1.6435 ALL AMERICANS -0.1249
-1.6435 ALL ARE -0.2919
-1.6435 ALL BUT -0.2970
-1.6435 ALL FOR -0.2685
-1.3424 ALL OF -0.2404
-1.3424 ALL OTHER -0.2596
-1.6435 ALL POSSIBLE -0.1761
-1.1663 ALL THE -0.2998
-1.3424 ALL THESE -0.2218
-1.6435 ALL TIME -0.2881
-1.6435 ALL WANT -0.2663
-1.3424 ALL WHILE -0.1963
-1.6435 ALL YOU -0.2976
-0.3010 ALLBLACK REGIMENT -0.2041
-0.3010 ALLIED KING -0.2430
-0.3010 ALLOW IT -0.2652
-0.3010 ALLOWING THE -0.3002
-0.6990 ALMOST A -0.2993
-1.0000 ALMOST FEELS -0.1761
-1.0000 ALMOST LIKE -0.2840
-1.0000 ALMOST SPIT -0.1761
-1.0000 ALONE 3 -0.2632
-1.0000 ALONE </s> -0.3010
-1.0000 ALONE AND -0.2980
-1.0000 ALONE MEXICO -0.2960
-1.0000 ALONE THE -0.2994
-0.7782 ALONG JUST -0.2894
-0.4771 ALONG THE -0.2998
-0.3010 ALONGSIDE </s> -0.3010
-1.0792 ALREADY CONSIDERED -0.2430
-1.0792 ALREADY HAD -0.2875
-1.0792 ALREADY HAS -0.2915
-0.7782 ALREADY KNEW -0.1761
-1.0792 ALREADY REALLY -0.2863
-0.9031 ALS MADE -0.2788
-0.9031 ALS MAY -0.2553
-0.9031 ALS ROBS 0.0000
-0.9031 ALS SHIMMIES 0.0000
-1.4150 ALSO A -0.2985
-1.4150 ALSO AFROMEXICAN 0.0000
-1.4150 ALSO DID -0.2900
-1.4150 ALSO DIDNT -0.2478
-1.4150 ALSO FUN -0.2041
-1.4150 ALSO GIVEN -0.2688
-1.4150 ALSO HAD -0.2392
-1.4150 ALSO HAVE -0.2694
-1.4150 ALSO ONLY -0.2808
-1.4150 ALSO THEY -0.2982
-1.4150 ALSO TOTALLY -0.1761
-1.4150 ALSO UNLIKE -0.1249
-1.4150 ALSO WAS -0.2996
-0.3010 ALSRELATED TREMORS 0.0000
-0.3010 ALTERNATE REALITY 0.0000
-0.6021 ALTERNATIVE AND -0.3000
-0.6021 ALTERNATIVE WORLD -0.2632
-0.9031 ALTHOUGH AN -0.2950
-0.9031 ALTHOUGH HE -0.2502
-0.9031 ALTHOUGH HER -0.2632
-0.9031 ALTHOUGH THERE -0.2910
-0.3010 ALUMINUM BAT 0.0000
-1.0792 ALWAYS A -0.2976
-1.0792 ALWAYS BE -0.2903
-1.0792 ALWAYS BEEN -0.2688
-1.0792 ALWAYS HAD -0.2392
-1.0792 ALWAYS REMEMBER -0.2762
-1.0792 ALWAYS TAUGHT -0.1761
-0.3010 ALWYN </s> -0.3010
-1.0792 AM 30 -0.1761
-1.0792 AM JAVA 0.0000
-1.0792 AM LAUGHING -0.1761
-1.0792 AM NOT -0.2951
-1.0792 AM STONER -0.1761
-1.0792 AM UNIVERSITY -0.2430
-0.3010 AMAZING SENSE -0.0669
-1.0000 AMERICA RELIED 0.0000
-1.0000 AMERICA TAKING -0.1761
-1.0000 AMERICA WAS -0.2996
-1.0000 AMERICA WHICH -0.2825
-1.0000 AMERICA WHO -0.2963
-1.3424 AMERICAN ACCENT 0.0000
-1.3424 AMERICAN CEMETERY 0.0000
-1.3424 AMERICAN CIVIL 0.0000
-1.3424 AMERICAN COUNTRIES -0.2218
-1.3424 AMERICAN IMMIGRANT 0.0000
-1.3424 AMERICAN IMMIGRANTS -0.1761
-1.3424 AMERICAN NATIVES 0.0000
-1.3424 AMERICAN REPRESENTATION 0.0000
-1.3424 AMERICAN THINKS 0.0000
-1.3424 AMERICAN TREASURE 0.0000
-1.3424 AMERICAN UNION -0.2430
-0.4771 AMERICANS </s> -0.3010
-0.7782 AMERICANS BUT -0.2970
-1.0000 AMONG HIS -0.2924
-1.0000 AMONG MIDDLE -0.1761
-1.0000 AMONG OTHERS -0.2430
-1.0000 AMONG OUR -0.2840
-1.0000 AMONG USTHE 0.0000
-0.3010 AMOUNT BY -0.2264
-0.3010 AMSTERDAM HAD -0.2392
-1.8573 AN 1844 0.0000
-1.8573 AN 1856 0.0000
-1.8573 AN ABLE -0.2788
-1.8573 AN ACT -0.2218
-1.8573 AN AFFIDAVIT 0.0000
-1.8573 AN ALARM -0.2218
-1.8573 AN ALTERNATE 0.0000
-1.8573 AN ALUMINUM 0.0000
-1.8573 AN AMAZING 0.0000
-1.8573 AN ANECDOTE 0.0000
-1.8573 AN APPLICANT 0.0000
-1.8573 AN ASSAULT -0.1761
-1.8573 AN ATTIC 0.0000
-1.8573 AN ATTITUDE 0.0000
-1.8573 AN ERROR 0.0000
-1.8573 AN ESCAPED -0.0792
-1.8573 AN EVIL 0.0000
-1.8573 AN FBI -0.2900
-1.2553 AN HONORABLE -0.0792
-1.8573 AN HONOURARY 0.0000
-1.8573 AN ICECREAM 0.0000
-1.8573 AN IDIOT 0.0000
-1.8573 AN INFINITE 0.0000
-1.8573 AN INGESTING 0.0000
-1.8573 AN INSANE -0.1761
-1.3802 AN INSULT -0.0969
-1.8573 AN INSURMOUNTABLE 0.0000
-1.8573 AN OBVIOUS -0.1761
-1.8573 AN OFFICIAL 0.0000
-1.8573 AN OPTION -0.1249
-1.8573 AN OVERALL 0.0000
-0.3010 ANCESTORS I -0.2877
-0.6021 ANCIENT PROBLEMS -0.1761
-0.6021 ANCIENT SOLUTIONS 0.0000
-2.6415 AND 18TH 0.0000
-2.6415 AND 1917 -0.1761
-2.6415 AND 75 0.0000
-1.8633 AND A -0.2933
-2.3404 AND ACCEPTED 0.0000
-2.6415 AND ACID 0.0000
-2.6415 AND AFTER -0.2840
-2.6415 AND ALMOST -0.2553
-2.3404 AND ALSO -0.2663
-2.6415 AND ARE -0.2919
-2.6415 AND ASSISTED 0.0000
-2.6415 AND AT -0.2962
-2.6415 AND BARBARIC -0.1761
-2.6415 AND BECAME -0.1761
-2.6415 AND BECOME -0.1761
-2.6415 AND BEMOANED 0.0000
-2.6415 AND BLACK -0.2730
-2.6415 AND BRAIN 0.0000
-2.6415 AND BRUTALITY -0.1761
-2.6415 AND CENTRAL -0.1761
-2.6415 AND CHEEK 0.0000
-2.6415 AND CHILD -0.1761
-2.6415 AND CONFEDERATE -0.2730
-2.6415 AND CONSERVATIVE -0.1761
-2.1644 AND DEVOTED 0.0000
-2.6415 AND DIE -0.2218
-2.6415 AND DOMICILE 0.0000
-2.6415 AND ESSAYS 0.0000
-2.6415 AND ESTABLISHED 0.0000
-2.6415 AND EVERY -0.2632
-2.6415 AND EVERYONE -0.2218
-2.6415 AND EXCHANGED 0.0000
-2.6415 AND EXCITEDLY 0.0000
-2.6415 AND FLEE -0.1761
-2.3404 AND FREEDOM -0.2430
-2.6415 AND FRIENDLY 0.0000
-2.6415 AND GENOCIDAL -0.1761
-2.6415 AND GETTING -0.2553
-2.6415 AND GIDDY 0.0000
-2.6415 AND GIVE -0.2762
-2.3404 AND GO -0.1919
-2.6415 AND GOOD -0.2747
-2.6415 AND GRANDMA -0.2632
-2.3404 AND HAD -0.2921
-2.6415 AND HARDER -0.1249
-2.6415 AND HAS -0.2915
-2.1644 AND HAVE -0.2527
-2.6415 AND HAVENT -0.1761
-2.6415 AND HAWKING -0.2926
-1.8633 AND HE -0.2291
-2.6415 AND HER -0.2825
-2.3404 AND HERE -0.2596
-2.6415 AND HES -0.2341
-2.6415 AND HIS -0.2924
-2.6415 AND HUNDREDS -0.1761
-1.9425 AND I -0.2756
-2.6415 AND INSANE -0.1761
-2.6415 AND IS -0.2986
-2.6415 AND ISNT 0.0000
-1.9425 AND IT -0.2476
-2.6415 AND ITS -0.2950
-2.6415 AND JAPANESE -0.1761
-2.6415 AND KHANS -0.1761
-2.6415 AND LEAVING -0.2218
-2.6415 AND LED -0.1761
-2.6415 AND LEVEL -0.2218
-2.6415 AND LIKELY -0.2218
-2.6415 AND LIVESTOCK 0.0000
-2.6415 AND LIVING -0.2218
-2.6415 AND LOVED -0.2218
-2.6415 AND MADE -0.2788
-2.6415 AND MAKE -0.2808
-2.6415 AND MAKEUP 0.0000
-2.6415 AND MANAGED 0.0000
-2.3404 AND MANY -0.2747
-2.6415 AND MARILYN 0.0000
-2.6415 AND ME -0.2808
-2.6415 AND MEDICAL 0.0000
-2.6415 AND MEXICO -0.2908
-2.6415 AND MEXICOS -0.1761
-2.6415 AND MORAL 0.0000
-2.6415 AND MORALLY -0.1761
-2.6415 AND MORE -0.2840
-2.6415 AND MOST -0.2167
-2.6415 AND MOVED -0.2430
-2.6415 AND NATIVE -0.1761
-2.6415 AND NORMAL -0.1761
-2.6415 AND NSA -0.2430
-2.3404 AND OF -0.2995
-2.6415 AND OLD -0.2730
-2.6415 AND OTHER -0.2808
-2.6415 AND OTHERWISE -0.2218
-2.6415 AND PASS -0.2218
-2.6415 AND PASSWORDS 0.0000
-2.6415 AND PATRIOT 0.0000
-2.6415 AND PLAY -0.2218
-2.6415 AND POLITICALLY 0.0000
-2.6415 AND POURED 0.0000
-2.6415 AND PRANKS -0.1761
-2.6415 AND PRESENT -0.1761
-2.6415 AND PROCEEDED 0.0000
-2.6415 AND PROTECTION 0.0000
-2.6415 AND RATHER -0.1249
-2.6415 AND RELATIVELY 0.0000
-2.6415 AND RETURN -0.2218
-2.6415 AND REVELED 0.0000
-2.6415 AND RIGID 0.0000
-2.6415 AND RUN -0.1249
-2.6415 AND SAUDI 0.0000
-2.6415 AND SAY -0.1891
-2.6415 AND SEE -0.2553
-2.6415 AND SERVE 0.0000
-2.6415 AND SHE -0.2730
-2.6415 AND SHRANK 0.0000
-2.6415 AND SLAVE -0.2808
-2.6415 AND SMOKE -0.2430
-2.1644 AND SO -0.2788
-2.6415 AND SOME -0.2888
-2.6415 AND SPEAKS -0.1761
-2.6415 AND STABILITY 0.0000
-2.6415 AND STALIN 0.0000
-2.6415 AND STANDS 0.0000
-2.6415 AND STARTED -0.1761
-2.6415 AND STILL -0.2863
-2.6415 AND SUBORDINATE 0.0000
-2.6415 AND TACTICIAN -0.1761
-2.6415 AND TECHNOLOGY 0.0000
-2.6415 AND TELL -0.2688
-2.6415 AND TEXANS -0.2553
-2.0394 AND THAT -0.2880
-1.3627 AND THE -0.2819
-2.6415 AND THEIR -0.2954
-2.6415 AND THERE -0.2596
-2.6415 AND THERES -0.2218
-2.6415 AND THEYRE -0.1761
-2.1644 AND THIS -0.2656
-2.6415 AND THOSE -0.2374
-2.6415 AND THUS 0.0000
-2.6415 AND THUSLY 0.0000
-2.6415 AND TOOK -0.1761
-2.6415 AND TRUE -0.1761
-2.6415 AND WANTED -0.1249
-2.6415 AND WAS -0.2938
-2.6415 AND WE -0.2868
-2.6415 AND WEED -0.2304
-2.6415 AND WELL -0.2881
-2.3404 AND WHAT -0.2688
-2.6415 AND WHATEVER 0.0000
-2.6415 AND WHEN -0.2820
-2.6415 AND WHILE -0.2688
-2.6415 AND WHOEVER 0.0000
-2.6415 AND WILLIAM -0.1761
-2.6415 AND WITH -0.2944
-2.6415 AND WONT 0.0000
-2.6415 AND WORK -0.2747
-2.6415 AND WRONG -0.2553
-2.6415 AND YELLING 0.0000
-2.3404 AND YET -0.1761
-2.1644 AND YOUR -0.2672
-2.6415 AND YOURE -0.2553
-0.3010 ANECDOTE OF -0.2964
-0.3010 ANECDOTES ABOUT -0.2940
-0.3010 ANGRY THAT -0.2992
-0.9031 ANOTHER ISSUE -0.2430
-0.9031 ANOTHER MEXICAN -0.2872
-0.9031 ANOTHER REASON -0.2341
-0.9031 ANOTHER TIL -0.2430
-0.3010 ANSWERS TO -0.3001
-0.3010 ANTE </s> -0.3010
-0.3010 ANTICIPATED THIS -0.2968
-0.6021 ANTIQUATED AND -0.3000
-0.6021 ANTIQUATED IDEAS -0.2430
-0.3010 ANTONIO RIVER -0.1761
-0.3010 ANXIOUS VISITORS -0.1761
-1.2553 ANY ADVANTAGE -0.1761
-1.2553 ANY ARMY -0.2553
-1.2553 ANY ENSLAVED -0.2632
-1.2553 ANY FUGITIVE 0.0000
-1.2553 ANY INTERESTING -0.1761
-0.9542 ANY OF -0.2979
-1.2553 ANY OTHER -0.2808
-1.2553 ANY SLAVE -0.2808
-1.0792 ANYONE IN -0.2286
-0.6021 ANYONE WHO -0.2817
-1.0792 ANYONE WITH -0.2843
-1.0792 ANYONE YOU -0.2941
-1.0000 ANYTHING </s> -0.3010
-1.0000 ANYTHING ABOUT -0.2795
-1.0000 ANYTHING BY -0.2953
-1.0000 ANYTHING I -0.2977
-1.0000 ANYTHING REMOTELY -0.1761
-0.3010 ANYTIME I -0.2977
-0.3010 APOLOGISTS </s> -0.3010
-0.3010 APOLOGIZE FOR -0.2962
-0.3010 APPARENTLY A -0.3002
-0.3010 APPEAL IT -0.2984
-0.3010 APPLE TO -0.3001
-0.3010 APPLICANT WHO -0.2817
-0.4771 APPLICANTS </s> -0.3010
-0.7782 APPLICANTS WERE -0.2858
-0.3010 APPLIED OTHERWISE -0.2218
-0.3010 APPRECIATION OF -0.3003
-0.3010 APPREHENSION OF -0.2995
-0.3010 APPROACH THEM -0.2919
-0.3010 APPS BEING -0.2881
-0.3010 APR 23 0.0000
-0.3010 ARCANE TECHNIQUES 0.0000
-0.3010 ARCHAIC STANDARDS 0.0000
-1.6812 ARE 100 0.0000
-1.3802 ARE </s> -0.3010
-1.6812 ARE A -0.3002
-1.6812 ARE BACKING 0.0000
-1.6812 ARE CUNTS 0.0000
-1.6812 ARE DEMONSTRABLY 0.0000
-1.6812 ARE DESCENDANTS -0.1761
-1.6812 ARE EQUAL -0.2218
-1.6812 ARE IN -0.2918
-1.6812 ARE LAID 0.0000
-1.6812 ARE NOT -0.2951
-1.6812 ARE ON -0.2976
-1.6812 ARE PEOPLE -0.2540
-1.6812 ARE SLOWLY -0.2218
-1.6812 ARE TALKING -0.0969
-1.0792 ARE THE -0.2969
-1.6812 ARE THERE -0.2910
-1.6812 ARE USING -0.1761
-1.6812 ARE WAY -0.2730
-1.6812 ARE WORTH -0.2632
-0.3010 AREA OFFICIALLY 0.0000
-0.3010 ARENT THINKING -0.1761
-0.3010 ARGUMENT AGAINST -0.1761
-0.3010 ARMINIUS OR -0.2923
-0.3010 ARMINIUSS ABILITY 0.0000
-1.0000 ARMY </s> -0.3010
-1.0000 ARMY AND -0.3000
-1.0000 ARMY IT -0.2984
-1.0000 ARMY LET -0.1963
-1.0000 ARMY TO -0.3001
-1.0000 AROUND 6 0.0000
-1.0000 AROUND ONE -0.2906
-1.0000 AROUND SOME -0.2632
-0.6990 AROUND THE -0.2969
-0.6021 ARTICLE 2 -0.2041
-0.9031 ARTICLE OF -0.2404
-0.9031 ARTICLE UPS 0.0000
-0.3010 ARTICLES CLAIMED 0.0000
-1.0492 AS A -0.2898
-2.0492 AS AN -0.2950
-2.0492 AS ANYONE -0.2632
-2.0492 AS CAPTIVES 0.0000
-2.0492 AS CONFEDERATES -0.2632
-2.0492 AS FBI -0.2900
-2.0492 AS FOR -0.2685
-2.0492 AS FUCK -0.2688
-2.0492 AS GOOD -0.2881
-2.0492 AS GRATEFUL 0.0000
-2.0492 AS HAWKINGS -0.1761
-2.0492 AS HE -0.2941
-1.7482 AS HELL -0.2041
-2.0492 AS HER -0.2825
-2.0492 AS HOW -0.2825
-2.0492 AS IF -0.2929
-1.3502 AS IT -0.2737
-2.0492 AS LONG -0.2553
-2.0492 AS RACIST -0.2553
-2.0492 AS REGARDED 0.0000
-2.0492 AS SCREAMING 0.0000
-1.7482 AS SHAW -0.2553
-2.0492 AS STEPHEN 0.0000
-2.0492 AS STRAIGHT -0.1761
-2.0492 AS THAT -0.2992
-1.2711 AS THE -0.2953
-2.0492 AS THEY -0.2865
-2.0492 AS TO -0.2762
-2.0492 AS WAS -0.2996
-1.7482 AS WELL -0.2747
-2.0492 AS WHEN -0.2948
-1.7482 AS WHITE -0.2730
-1.7482 AS YOU -0.2870
-0.3010 ASIA </s> -0.3010
-0.7782 ASK DONT -0.2894
-0.7782 ASK OF -0.3003
-0.7782 ASK QUESTIONS -0.1761
-0.9031 ASKED ABOUT -0.2795
-0.9031 ASKED HAWKING -0.2926
-0.9031 ASKED HIM -0.2951
-0.9031 ASKED MCAFEE -0.1761
-0.3010 ASKING FOR -0.2685
-0.3010 ASL TEACHER 0.0000
-0.3010 ASS INDICATOR 0.0000
-0.3010 ASSASINATION FOR -0.2986
-0.6021 ASSAULT ON -0.2976
-0.6021 ASSAULT WAS -0.2996
-0.3010 ASSES HOBBLING 0.0000
-0.3010 ASSHOLE FROM -0.2932
-0.3010 ASSHOLES </s> -0.3010
-0.3010 ASSISTED THOSE -0.2596
-0.3010 ASSULT ON -0.2798
-0.3010 ASSUME THE -0.3006
-0.3010 ASSUMING THEY -0.2953
-0.3010 ASSUMPTION OF -0.2404
-1.6532 AT A -0.2993
-1.9542 AT ANY -0.2762
-1.9542 AT BEST -0.2430
-1.9542 AT CAMBRIDGE -0.1761
-1.9542 AT EVERY -0.2632
-1.9542 AT FORT -0.2632
-1.9542 AT HIGH -0.2553
-1.4771 AT HIS -0.2865
-1.9542 AT HONEY 0.0000
-1.9542 AT LEAST 0.0000
-1.9542 AT MOST -0.2881
-1.6532 AT MY -0.2884
-1.9542 AT OURSELVES 0.0000
-1.9542 AT REST -0.2430
-1.9542 AT SOME -0.2888
-1.9542 AT SOMETHING -0.2688
-1.9542 AT THAT -0.2992
-0.6755 AT THE -0.2857
-1.9542 AT THIS -0.2968
-1.9542 AT TIMES -0.1761
-1.9542 AT WHICH -0.2825
-1.9542 AT WORK -0.2881
-1.9542 AT WORST -0.1761
-0.3010 ATHENS 2017 0.0000
-0.3010 ATLANTA </s> -0.3010
-0.3010 ATMOSPHERE AND -0.3000
-0.3010 ATTACK IN -0.2984
-0.3010 ATTAINING IT -0.2984
-0.3010 ATTEMPTING TO -0.2962
-0.3010 ATTIC FOR -0.2962
-0.3010 ATTITUDE THAT -0.2992
-0.3010 AUDACITY OF -0.2995
-0.3010 AUDIENCE WHENEVER -0.1761
-0.3010 AUNT USED -0.1761
-0.6021 AUSTRIA MAKE -0.2808
-0.6021 AUSTRIA NUBE 0.0000
-0.3010 AUTOMATICALLY FREE -0.2840
-0.3010 AVENUES OF -0.2987
-0.3010 AVOIDED THE -0.2953
-0.3010 AWARDS </s> -0.3010
-1.1461 AWAY </s> -0.3010
-1.1461 AWAY AND -0.2980
-1.1461 AWAY AT -0.2962
-0.8451 AWAY FROM -0.2249
-1.1461 AWAY I -0.2944
-1.1461 AWAY SOMETIME 0.0000
-0.9031 AWESOME AWESOME -0.2430
-0.9031 AWESOME HACKER -0.1761
-0.9031 AWESOME SHORT -0.1761
-0.9031 AWESOME TOO -0.2218
-0.3010 AWFUL PEOPLE -0.2954
-0.3010 AWKWARD LAUGHTER -0.2218
-0.3010 B </s> -0.3010
-0.3010 BABY OUT -0.2923
-1.2553 BACK </s> -0.3010
-1.2553 BACK AND -0.3000
-1.2553 BACK DOOR 0.0000
-0.7782 BACK IN -0.2239
-1.2553 BACK INTO -0.2881
-1.2553 BACK SOME -0.2888
-1.2553 BACK THEN -0.2499
-0.3010 BACKGROUND CHECK -0.1761
-0.3010 BACKING AWAY -0.2341
-0.3010 BACKWARD AND -0.3000
-0.3010 BACKWARDS AND -0.3000
-1.0000 BAD </s> -0.3010
-1.0000 BAD ENOUGH -0.2632
-1.0000 BAD GUYS -0.2430
-1.0000 BAD HOMBRES 0.0000
-1.0000 BAD IDEA -0.2218
-0.3010 BADGES INSTEAD -0.0792
-0.6021 BARBARIC FOR -0.2986
-0.6021 BARBARIC GERMANIC 0.0000
-0.3010 BARBS WITH -0.2977
-0.6021 BARELY LIVED -0.1761
-0.6021 BARELY MOVE -0.2430
-0.3010 BARR ALWYN 0.0000
-0.3010 BASE </s> -0.3010
-0.7782 BASED MEXICO -0.2358
-0.7782 BASED ON -0.2976
-0.7782 BASED UPON -0.2762
-0.6021 BASICALLY NONSTOP 0.0000
-0.6021 BASICALLY PLAYED -0.2430
-0.3010 BASIS OF -0.3003
-0.3010 BASTARD </s> -0.3010
-0.3010 BASTROP WHO -0.2963
-0.3010 BAT WHEN -0.2553
-0.3010 BATH WATERISH 0.0000
-0.6021 BATTALION </s> -0.3010
-0.6021 BATTALION BY -0.2953
-0.7782 BATTLE </s> -0.3010
-1.0792 BATTLE AND -0.2980
-0.7782 BATTLE AT -0.1919
-1.0792 BATTLE WAS -0.2967
-0.3010 BBC SCIENCE -0.1761
-1.2148 BE A -0.2809
-1.9138 BE ABLE -0.0414
-1.6128 BE AN -0.2762
-1.9138 BE AS -0.2971
-1.9138 BE BEFORE -0.2808
-1.6128 BE BURIED -0.1461
-1.9138 BE CALLED -0.1761
-1.9138 BE CONSIDERED -0.2430
-1.9138 BE DOUBTED 0.0000
-1.9138 BE EVANESCENT 0.0000
-1.9138 BE FEMINISTS 0.0000
-1.9138 BE FIRM -0.2430
-1.9138 BE FREE -0.2840
-1.9138 BE FUEL 0.0000
-1.9138 BE GIVEN -0.2688
-1.9138 BE HAPPY -0.1761
-1.9138 BE LEGAL -0.2553
-1.9138 BE MARRIED -0.1761
-1.9138 BE MEXICAN -0.2872
-1.9138 BE MORE -0.2840
-1.9138 BE MUCH -0.2788
-1.9138 BE OFFERING 0.0000
-1.9138 BE ONE -0.1402
-1.9138 BE PAID 0.0000
-1.9138 BE PROPERLY 0.0000
-1.9138 BE PROUD -0.1249
-1.9138 BE REPAID 0.0000
-1.9138 BE SEEN -0.1761
-1.9138 BE SLAUGHTERED 0.0000
-1.9138 BE SO -0.2956
-1.6128 BE THE -0.2982
-1.9138 BE THEIR -0.2954
-1.9138 BE TRULY 0.0000
-1.9138 BE WILLING 0.0000
-0.3010 BEAT THE -0.3002
-0.3010 BEAUTIFUL </s> -0.3010
-0.6021 BECAME A -0.2993
-0.9031 BECAME INDEPENDENT 0.0000
-0.9031 BECAME THE -0.3006
-1.1761 BECAUSE A -0.2976
-1.4771 BECAUSE ELLEN -0.1761
-1.4771 BECAUSE HE -0.2941
-1.1761 BECAUSE I -0.2843
-1.4771 BECAUSE IT -0.2984
-1.4771 BECAUSE OF -0.3003
-1.4771 BECAUSE PEOPLE -0.2954
-1.1761 BECAUSE THE -0.2949
-0.8751 BECAUSE THEY -0.2715
-0.9031 BECOME A -0.3002
-0.6021 BECOME AN -0.2888
-0.9031 BECOME TOO -0.2632
-0.3010 BECOMES TEXANS -0.2553
-0.3010 BECOMING HARDER -0.2218
-1.1461 BEEN A -0.2967
-1.6232 BEEN ABLE -0.0414
-1.6232 BEEN BESTOWED 0.0000
-1.6232 BEEN ENTIRELY -0.1761
-1.6232 BEEN HAD -0.2966
-1.6232 BEEN HAWKED 0.0000
-1.1461 BEEN IN -0.2958
-1.6232 BEEN LEGENDARY 0.0000
-1.6232 BEEN LOOKING -0.1249
-1.6232 BEEN ONE -0.1402
-1.6232 BEEN PLAYING -0.1761
-1.6232 BEEN REPLACED 0.0000
-1.6232 BEEN SLOW 0.0000
-1.6232 BEEN SOMETHING -0.2688
-1.6232 BEEN STOLEN -0.1761
-1.6232 BEEN TROLLING 0.0000
-1.6232 BEEN WORKING -0.2218
-1.3424 BEFORE HIM -0.2769
-1.3424 BEFORE HIS -0.2982
-1.3424 BEFORE LEGALIZATION 0.0000
-1.3424 BEFORE MACHIAVELLI 0.0000
-1.3424 BEFORE PEOPLE -0.2954
-1.3424 BEFORE SHE -0.2730
-0.8653 BEFORE THE -0.2969
-1.3424 BEFORE THEY -0.2982
-1.3424 BEFORE YOUR -0.2900
-0.3010 BEGGED EVERYONE -0.2218
-0.3010 BEGINNING OF -0.2404
-0.7782 BEHIND COUCH 0.0000
-0.7782 BEHIND IN -0.2286
-0.7782 BEHIND THE -0.3002
-1.2304 BEING A -0.2993
-1.5315 BEING ABLE -0.0414
-1.5315 BEING ANGRY 0.0000
-1.5315 BEING DETECTED 0.0000
-1.5315 BEING FEATURED 0.0000
-1.5315 BEING FORCED 0.0000
-1.5315 BEING FROM -0.2341
-1.5315 BEING IN -0.2958
-1.5315 BEING OK -0.1761
-1.5315 BEING ON -0.2341
-1.5315 BEING PLAYED -0.1761
-1.5315 BEING POSSIBLE -0.1761
-1.5315 BEING STEPHEN 0.0000
-1.5315 BEING THE -0.2986
-1.5315 BEING UNDERCOVER 0.0000
-1.5315 BEING USED -0.2632
-0.3010 BEINGS BASED -0.2218
-0.6021 BELIEVE </s> -0.3010
-0.6021 BELIEVE THEY -0.2894
-0.3010 BELIEVES THEIR -0.2897
-0.3010 BELLA GERANT 0.0000
-0.3010 BELONG TO -0.3001
-0.3010 BELONGED TO -0.3001
-0.3010 BEMOANED MY -0.2948
-0.3010 BERNARDIO IN -0.2997
-0.9031 BEST A -0.3002
-0.9031 BEST HACKERS -0.1761
-0.9031 BEST MOVIE -0.2632
-0.9031 BEST OPTION -0.2218
-0.3010 BESTOWED UPON -0.2762
-0.3010 BET HOOVER 0.0000
-0.7782 BETTER AND -0.3000
-0.7782 BETTER COMPANY 0.0000
-0.7782 BETTER TOOLS 0.0000
-0.6021 BETWEEN BLACK -0.2872
-0.6021 BETWEEN PSYCHEDELICS 0.0000
-0.3010 BEULLER WAS -0.2996
-0.3010 BEYOND THE -0.2998
-0.3010 BID BY -0.2953
-0.6021 BIG ASS 0.0000
-0.6021 BIG JAPANESE -0.1761
-0.3010 BIGGEST FACTORS 0.0000
-0.3010 BILLION DOLLARS -0.1761
-0.7782 BIT ABOUT -0.2940
-0.7782 BIT GEGHIS 0.0000
-0.7782 BIT OFF -0.2430
-1.5051 BLACK </s> -0.3010
-1.5051 BLACK BATTALION -0.1761
-1.5051 BLACK BODIES -0.2218
-1.5051 BLACK CORPSES 0.0000
-1.5051 BLACK DEATH -0.2688
-1.2041 BLACK PEOPLE -0.2897
-1.5051 BLACK POPULATION -0.2218
-1.5051 BLACK PRESIDENT -0.2430
-0.8062 BLACK SOLDIERS -0.0378
-1.5051 BLACK TEHE 0.0000
-1.5051 BLACK WHITE -0.2872
-0.3010 BLACKETT R 0.0000
-0.3010 BLEW IT -0.2984
-0.3010 BLOCKERS </s> -0.3010
-0.3010 BLOWN HOW -0.2730
-0.7782 BODIES IN -0.2997
-0.7782 BODIES OR -0.2923
-0.7782 BODIES SO -0.2788
-0.9031 BODY AND -0.3000
-0.9031 BODY BUT -0.2929
-0.6021 BODY REMOVED 0.0000
-0.3010 BODYGUARD HE -0.2964
-0.3010 BOLIVIA THERE -0.2596
-0.3010 BOLIVIAN FULL 0.0000
-0.3010 BOLSTERED IN -0.2997
-0.3010 BOND WITH -0.2944
-0.6021 BONDAGE HAVE -0.2894
-0.6021 BONDAGE THEY -0.2982
-0.3010 BOOMERS GET -0.2762
-0.3010 BOOTED HIM -0.2951
-0.7782 BORDER FOR -0.2986
-0.7782 BORDER TO -0.2762
-0.7782 BORDER WALL 0.0000
-0.3010 BORDERS AND -0.3000
-0.9031 BORN FREE -0.2083
-0.6021 BORN IN -0.2255
-0.9031 BORN INTO -0.2881
-0.3010 BOSS PROBABLY -0.2688
-0.3010 BOSTON DEPARTMENT -0.2218
-0.3010 BOTH SIDES 0.0000
-0.3010 BRAIN CELLS 0.0000
-0.3010 BRAVE AND -0.2980
-0.3010 BREACH SYSTEMS 0.0000
-0.3010 BREAK INTO -0.2319
-0.3010 BREECH THE -0.3006
-0.3010 BRENT SPINER 0.0000
-0.6021 BRIEF BROUGHT 0.0000
-0.6021 BRIEF CRICK 0.0000
-0.3010 BRING THAT -0.2992
-0.3010 BRINGS A -0.3002
-0.3010 BRODERICK AS -0.2932
-0.3010 BRODERICKS CHARACTER 0.0000
-0.3010 BROKE AWAY -0.2688
-0.3010 BROTHERS </s> -0.3010
-0.3010 BROUGHT BACK -0.2762
-0.3010 BROWNIE NO -0.2915
-0.6021 BRUTAL BUT -0.2970
-0.6021 BRUTAL SAVAGE -0.1761
-0.6021 BRUTALITY AND -0.3000
-0.6021 BRUTALITY OF -0.2995
-0.3010 BUDS BEING -0.2881
-0.3010 BUILD A -0.3002
-0.6021 BUILT A -0.3002
-0.6021 BUILT UPON -0.2762
-0.3010 BULL </s> -0.3010
-0.3010 BUNCH OF -0.2924
-0.3010 BUREAU </s> -0.3010
-1.0792 BURIAL </s> -0.3010
-0.6021 BURIAL AS -0.2812
-1.0792 BURIAL BUT -0.2970
-1.0792 BURIAL REGARDLESS 0.0000
-1.0000 BURIED BUT -0.2970
-1.0000 BURIED IN -0.2918
-0.5229 BURIED WITH -0.2808
-0.3010 BURN </s> -0.3010
-0.3010 BURNED AND -0.2980
-0.3979 BURY HIM -0.2643
-1.0000 BURY YOU -0.2976
-0.3010 BURYING HIM -0.2891
-0.3010 BUSINESS BEING -0.2881
-0.3010 BUSTLE AROUND -0.2041
-2.0334 BUT A -0.3002
-2.0334 BUT AFTER -0.2840
-2.0334 BUT APPROACH 0.0000
-2.0334 BUT CEASED 0.0000
-2.0334 BUT CERTAINLY 0.0000
-2.0334 BUT CLEVER 0.0000
-2.0334 BUT DAMMIT 0.0000
-2.0334 BUT DIDNT -0.2840
-1.7324 BUT DONT -0.2775
-1.7324 BUT FOR -0.2937
-1.7324 BUT HE -0.2800
-1.7324 BUT HIS -0.2953
-2.0334 BUT IF -0.2314
-2.0334 BUT IN -0.2997
-2.0334 BUT INCLUDED 0.0000
-1.5563 BUT IT -0.2476
-2.0334 BUT ITS -0.2888
-2.0334 BUT LOSE -0.2632
-2.0334 BUT NEVER -0.2762
-2.0334 BUT NO -0.2915
-2.0334 BUT ONLY -0.2808
-2.0334 BUT RATHER -0.2218
-2.0334 BUT REMEMBER -0.2499
-2.0334 BUT SHE -0.2730
-2.0334 BUT SPECIAL 0.0000
-2.0334 BUT STILL -0.2711
-2.0334 BUT TEXANS -0.2553
-2.0334 BUT THAT -0.2955
-2.0334 BUT THATS -0.2852
-1.1883 BUT THE -0.2928
-1.5563 BUT THEY -0.2806
-1.7324 BUT THIS -0.2702
-2.0334 BUT TO -0.3001
-2.0334 BUT WELL -0.2881
-2.0334 BUT WERE -0.2935
-2.0334 BUT WHAT -0.2906
-2.0334 BUT WHEN -0.2553
-2.0334 BUT WHETHER -0.1249
-2.0334 BUT WHO -0.2963
-1.8808 BY 200 0.0000
-1.2788 BY A -0.2967
-1.8808 BY AIMING 0.0000
-1.8808 BY BURYING 0.0000
-1.8808 BY CYBERSECURITY -0.1761
-1.8808 BY DAVID 0.0000
-1.8808 BY GENERAL -0.2730
-1.8808 BY HALF -0.1761
-1.8808 BY HAVING -0.2632
-1.8808 BY HEADING -0.1761
-1.8808 BY HIM -0.2891
-1.5798 BY HIS -0.2924
-1.5798 BY NO -0.2817
-1.8808 BY PUTTING 0.0000
-1.8808 BY RACES -0.1761
-1.8808 BY RANDOLPH 0.0000
-1.8808 BY RESALE 0.0000
-1.8808 BY SCUMBAG 0.0000
-1.8808 BY THAT -0.2992
-0.8016 BY THE -0.2870
-1.8808 BY THIS -0.2968
-1.8808 BY VARIOUS -0.2430
-0.3010 C </s> -0.3010
-0.3010 CA WA 0.0000
-0.3010 CABLE FROM -0.2852
-0.3010 CALL HER -0.2825
-0.6021 CALLED A -0.2950
-0.6021 CALLED THEY -0.2953
-0.6021 CAMBRIDGE </s> -0.3010
-0.6021 CAMBRIDGE UNIVERSITY -0.2730
-1.0000 CAME AND -0.2818
-0.6990 CAME TO -0.2823
-0.6990 CAME UP -0.2653
-0.7782 CAMERA MAN -0.2872
-0.7782 CAMERA OPERATOR 0.0000
-0.7782 CAMERA SLOWLY -0.2218
-0.3010 CAMERMAN QUOTED 0.0000
-0.3010 CAMP CLAIMS 0.0000
-0.3010 CAMPBELL WILLIAM -0.1761
-1.5563 CAN BE -0.2957
-1.5563 CAN CONFIDENTLY 0.0000
-1.5563 CAN CONFIRM 0.0000
-1.0792 CAN DO -0.2553
-1.5563 CAN GLORIFY 0.0000
-1.2553 CAN IMAGINE -0.2430
-1.5563 CAN JUST -0.2894
-1.5563 CAN NOT -0.2951
-1.5563 CAN OPENLY -0.1761
-1.5563 CAN ORDER -0.1761
-1.5563 CAN PICTURE 0.0000
-1.5563 CAN REALLY -0.2863
-1.5563 CAN TEACH 0.0000
-1.5563 CAN USE -0.2218
-1.5563 CAN YOU -0.2976
-0.3010 CANADA BUT -0.2929
-0.3010 CANADIAN FBI -0.2900
-0.6021 CANDIDATES </s> -0.3010
-0.6021 CANDIDATES ARE -0.2919
-0.6021 CANNOT IMAGINE -0.2730
-0.6021 CANNOT WORK -0.2881
-0.3010 CANON FIRE 0.0000
-1.2553 CANT BE -0.2957
-1.2553 CANT FIND -0.2788
-1.2553 CANT HAVE -0.2933
-1.2553 CANT HELP -0.2430
-1.2553 CANT IMAGINE -0.2430
-1.2553 CANT PUT -0.2688
-1.2553 CANT REMEMBER -0.2762
-1.2553 CANT TELL -0.2688
-1.2553 CANT WAIT -0.1761
-0.3010 CAPABILITIES AS -0.2604
